solver_type L2R_L1LOSS_SVC_DUAL
nr_class 2
label 0 1
nr_feature 184963
bias -1.000000000000000
w
0.01860718538964608 
0.007118530594129136 
0.01157203659633544 
-0.04990918420079044 
-0.05972057297094324 
0.01538071804785939 
0.007118530594129136 
-0.03475722401092962 
0.07579841912438090 
0.007118530594129136 
0.01700822519920860 
0.04341739188768754 
0.006818054727276351 
0.01860718538964608 
-0.01485083520852262 
0.01538071804785939 
0.007118530594129136 
0.007118530594129136 
0.007118530594129136 
0.007118530594129136 
0.01860718538964608 
-0.04984840375262324 
-0.02341045151779351 
0.001715055852859205 
0.007118530594129136 
0.007118530594129136 
-0.07707920227260360 
-0.02951595270118965 
0.002211125695585234 
0.04226494155649414 
0.005824816378790176 
0.01538071804785939 
-0.02234291553257079 
-0.03020393362821326 
0.007118530594129136 
0.007118530594129136 
0.01538071804785939 
0.03107745302418534 
0.01538071804785939 
0.007118530594129136 
0.007118530594129136 
0.007118530594129136 
0.03162185769830841 
-0.003502616985537553 
-0.03912266229436130 
0.01157203659633544 
0.01157203659633544 
-0.0004140145341464172 
0.07628220141241877 
0.01538071804785939 
0.01538071804785939 
0.1035316022359389 
0.08387552527432772 
-0.006066283435593707 
0.01860718538964608 
0.01538071804785939 
-0.01745146452959621 
0.05865766262292273 
0.01538071804785939 
-0.004381303759077602 
0.01538071804785939 
0.007118530594129136 
0.007118530594129136 
0.04909023231556831 
0.01538071804785939 
-0.06643478953796556 
0.01538071804785939 
-0.03020393362821326 
0.007118530594129136 
0.03725909047162573 
0.01373848929442476 
0.01307245229440087 
-0.01845196699272620 
0.007118530594129136 
0.01538071804785939 
-0.07349036925309013 
0.01538071804785939 
-0.01699226703197387 
-0.01827985035488386 
0.003309849142605227 
0.01538071804785939 
-0.04190306949575631 
0.01538071804785939 
0.008423492997275645 
0.003309849142605227 
0.01157203659633544 
0.01538071804785939 
0.007118530594129136 
0.007118530594129136 
-0.002568468484065979 
-0.02528388912732207 
-0.02028780104286483 
0.007118530594129136 
0.01971586446004548 
-0.05141460776896288 
0.007118530594129136 
0.007118530594129136 
0.007118530594129136 
-0.001439310650885670 
0.003309849142605227 
0.06217659189300305 
0.007118530594129136 
0.01538071804785939 
0.02010993117338820 
0.01538071804785939 
-0.06262634586702699 
0.01478091361143724 
0.007118530594129136 
0.01538071804785939 
0.008205074114897687 
0.02041176154079428 
0.01860718538964608 
0.007118530594129136 
0.04341739188768754 
-0.1050889037778488 
0.007118530594129136 
0.007118530594129136 
0.007118530594129136 
0.01860718538964608 
0.01538071804785939 
0.01860718538964608 
0.01538071804785939 
0.01538071804785939 
0.01538071804785939 
0.01538071804785939 
0.003309849142605227 
-0.007789379879475620 
0.01294792804375024 
-0.002106258913615385 
0.02333082252247001 
-0.002106258913615385 
0.01294792804375024 
-0.02028780104286483 
0.003309849142605227 
-0.001439310650885670 
0.003340284472544848 
0.04471422231982367 
0.01538071804785939 
0.05075977753668187 
0.007118530594129136 
0.003309849142605227 
0.01860718538964608 
-0.04342999456791458 
0.01538071804785939 
-0.04242669589718385 
0.01538071804785939 
0.01860718538964608 
-0.06098887463795881 
-0.03573068028215910 
0.003309849142605227 
0.003309849142605227 
0.003309849142605227 
0.003309849142605227 
0.003309849142605227 
0.007118530594129136 
0.006850301880526030 
0.01538071804785939 
0.003309849142605227 
0.006667279610817579 
0.007118530594129136 
0.003309849142605227 
0.01538071804785939 
-0.06055613704962740 
0.04628619653933043 
0.01860718538964608 
0.003309849142605227 
0.007118530594129136 
0.007118530594129136 
0.001608634274318959 
0.007118530594129136 
0.003309849142605227 
-0.06484049253317688 
0.003309849142605227 
-0.02028780104286483 
0.01538071804785939 
0.02657759638519736 
-0.03475722401092962 
-0.05062214073010291 
0.1238860273723092 
0.003309849142605227 
0.01538071804785939 
0.07136185287452950 
0.01538071804785939 
0.007118530594129136 
0.03844465024108860 
0.01538071804785939 
0.03653417353227515 
0.01235459134475719 
0.003309849142605227 
-0.02028780104286483 
0.007118530594129136 
0.001608634274318959 
-0.001719015265331493 
-0.02873383932485605 
-0.02319435433200177 
0 
0 
-0.007795465686226914 
0 
0 
0.02975514506343467 
0.01280765885741436 
-0.009518580662744556 
0.001889932297876886 
0.01912511418291346 
-0.01635249910946361 
-0.009518580662744556 
0.07609345923139553 
0.01912511418291346 
0 
0.01455039620557444 
-0.003309793005414649 
0.009626946635019368 
0 
0.01455039620557444 
0.03260972938227182 
-0.1825166620676720 
0.02190381774600885 
0 
-0.01635249910946361 
0.01607400702354818 
0.09115584952226778 
-0.009518580662744556 
0.005374168560038709 
0.02018476721216699 
0.009626946635019368 
0.04355798495097882 
0.01532261351649614 
0.001375891447414802 
-0.02521680324278771 
0.02388661973777434 
-0.01635249910946361 
0.01164187039249932 
0.01556301366618866 
0.02033835685018890 
0.02190381774600885 
0 
-0.0001746790930810231 
0 
0 
0.05828214841127359 
0.02190381774600885 
0.01556301366618866 
0.01188553076342877 
-0.01226214650977257 
0.01659548934137485 
0 
0 
-0.01635249910946361 
-0.01967324526256584 
0 
0.01556301366618866 
0 
0.007331951992044441 
-0.02126369969448527 
0.01912511418291346 
-0.002437772368155854 
0.01164187039249932 
0 
0.01659548934137485 
0 
-0.002437772368155854 
0.01607400702354818 
0.009626946635019368 
0 
0.01024705528100635 
0 
0.01607400702354818 
-0.01019563790177442 
0.001375891447414802 
0.001375891447414802 
-0.005142722626567791 
-0.01226214650977257 
0.03167954675768418 
0.009626946635019368 
0.01608614419874640 
0.04609791833709157 
0.01607400702354818 
-0.009518580662744556 
0.02190381774600885 
0.01912511418291346 
-0.01226214650977257 
0 
0 
0.009626946635019368 
0.02033835685018890 
-0.01226214650977257 
0.01659548934137485 
0.01760154818551443 
0.003808681451523957 
0.1276548932682313 
0.003808681451523957 
0.003808681451523957 
-0.006747048817969626 
0.003808681451523957 
0.003808681451523957 
0.003808681451523957 
-0.04090450019447681 
0.003808681451523957 
0.003808681451523957 
0.003808681451523957 
0.003808681451523957 
0.003808681451523957 
0.003808681451523957 
0.003808681451523957 
0.003808681451523957 
0.003808681451523957 
0.003808681451523957 
0.003808681451523957 
0.003808681451523957 
-0.01849096502003332 
0.01797178280379078 
0.001312852379522032 
0.003808681451523957 
0.003808681451523957 
0 
0 
0 
0 
-0.002495829072001925 
0 
0.02761797586362218 
0 
0 
-0.002495829072001925 
0 
0.001375891447414800 
-0.001035341479760297 
0 
0.001375891447414800 
0.001375891447414800 
0.001375891447414800 
0.005065758604349712 
0 
-0.008562214831502567 
0.04854043791894575 
0.001375891447414800 
0.02561065907781763 
-0.04760867475706057 
0.001375891447414800 
-0.001615452830041892 
0.001375891447414800 
0.001375891447414800 
0 
0.001375891447414800 
0.001375891447414800 
0.001375891447414800 
0.05594680579531645 
-0.01764660034310948 
0 
0.01284525813383830 
0.003704873416688427 
0.001375891447414800 
-0.001615452830041892 
-0.001615452830041892 
0.001375891447414800 
0.001375891447414800 
0 
0.01325485840844403 
0.003518225718644545 
-0.01219375757424982 
-0.001615452830041892 
-0.001615452830041892 
0.001375891447414800 
0 
0.001375891447414800 
0.001375891447414800 
0.001375891447414800 
0.001375891447414800 
0.001375891447414800 
0 
0.02175420389210094 
0.08803270676517688 
0 
0.001375891447414800 
0.001375891447414800 
0.001375891447414800 
0.003518225718644545 
0.01226320132739868 
-0.06112505650876650 
0.001375891447414800 
0 
0.006973099593913687 
0.001375891447414800 
0.001375891447414800 
0.001375891447414800 
0.01111337403433556 
-0.007305862875057168 
0.001375891447414800 
0.001375891447414800 
-0.03109586965760370 
0.001375891447414800 
0.001375891447414800 
0.001375891447414800 
0.001375891447414800 
0 
0 
-0.003065678778838553 
0.001375891447414800 
-0.01219375757424982 
0.001353102241933403 
0.001375891447414800 
0.001375891447414800 
-0.006843815328429328 
0.008126756341820092 
0 
0 
0.001375891447414800 
-0.01219375757424982 
0.001375891447414800 
-0.001615452830041892 
0.03148875600144167 
0.005133016300628784 
0.01493847883165815 
0.02001938931501806 
0.001375891447414800 
0.001375891447414800 
0.02425309234004592 
0.02796434600670657 
0 
0.001375891447414800 
-0.0003113338020358109 
-0.1427065900064127 
0.008126756341820092 
0.001375891447414800 
0.02001938931501806 
0.001375891447414800 
0.04098381905776349 
-0.03781842424325198 
0.001375891447414800 
0.001375891447414800 
0.001375891447414800 
0.001375891447414800 
0.001375891447414800 
0.001375891447414800 
0.03447255111843700 
0.001353102241933403 
0.02001938931501806 
0.001375891447414800 
0 
0.003704873416688427 
0 
0.008126756341820092 
0 
0.003518225718644545 
0.001375891447414800 
0.005133016300628784 
0.001375891447414800 
0.04836107602731767 
0.001375891447414800 
0 
-0.001615452830041892 
0.001375891447414800 
0.01325485840844403 
0 
0.007473736992169346 
0.002257552722921575 
-0.03870008551875874 
0.001375891447414800 
0.005065758604349712 
-0.001615452830041892 
0.001375891447414800 
-0.001615452830041892 
0.001375891447414800 
0.001375891447414800 
0.04332245905764139 
0.001375891447414800 
0.07529818343560332 
0 
0.001375891447414800 
0 
0 
0.001353102241933403 
0.02796434600670657 
0 
0.04206526010563320 
-0.007190716335236683 
0.003518225718644545 
0 
0 
0.001375891447414800 
-0.009382831394629204 
0.007473736992169311 
0 
0.001375891447414800 
0.01494694400598684 
0.02796434600670657 
-0.001035341479760297 
0 
0.001375891447414800 
0.01009402546392730 
-0.01415369316941249 
0.001375891447414800 
0.01009402546392730 
0.01226320132739868 
0.001375891447414800 
0.001375891447414800 
0.001375891447414800 
0.001375891447414800 
0.001375891447414800 
0 
0 
0.007473736992169311 
0.01009402546392730 
-0.006309055059729888 
0.01009402546392730 
0.001375891447414800 
0.01111337403433556 
0.001375891447414800 
0.001375891447414800 
0.001375891447414800 
0.001375891447414800 
0.001375891447414800 
0 
0.001375891447414800 
0.001375891447414800 
0.008126756341820092 
0.001375891447414800 
0.001375891447414800 
0.007473736992169311 
0.001375891447414800 
-0.006854979019422747 
0.003518225718644545 
-0.001615452830041892 
-0.03801656501224777 
-0.01219375757424982 
0.01009402546392730 
0.001375891447414800 
0.01160396760176045 
0.01009402546392730 
0 
0.001375891447414800 
0 
-0.005330340121172844 
-0.002403589762584448 
0.001375891447414800 
-0.006843815328429328 
0.001375891447414800 
-0.001615452830041892 
0.001375891447414800 
0.05709751490848896 
0 
-0.1021099900733359 
-0.009732402481099769 
0.001375891447414800 
0.04332245905764139 
0.007473736992169311 
-0.02466094660852909 
0.0001245242506506122 
-0.001615452830041892 
0.02799524754943009 
0 
0 
-0.009732402481099769 
0.001375891447414800 
-0.001615452830041892 
0 
0.01009402546392730 
-0.001615452830041892 
-0.0006691472290173354 
0.08728164414574680 
0.02796434600670657 
0 
0.001375891447414800 
0.001375891447414800 
0.001375891447414800 
0.001375891447414800 
0.001375891447414800 
0.03148875600144167 
-0.001615452830041892 
0.001375891447414800 
-0.01196710152476624 
0.001103980554623550 
0.02922354792886011 
0.01160396760176045 
0.02001938931501806 
0.006997864639859503 
0.001375891447414800 
0.04262327276530360 
0.001375891447414800 
0.001375891447414800 
-0.09592728021470020 
0.001375891447414800 
0.001375891447414800 
-0.01753823752391970 
0.001375891447414800 
0.001375891447414800 
-0.1190891941256787 
-0.01196792165360705 
0.001375891447414800 
0.002284074718431110 
0.001375891447414800 
0.001375891447414800 
0.001375891447414800 
-0.07487397755805143 
0.001375891447414800 
0.001375891447414800 
0.001375891447414800 
-0.04404644280013592 
0.001375891447414800 
-0.02901419999431862 
0.005655106585003835 
0.001375891447414800 
0.001375891447414800 
0.001344704061476427 
0.005322100675179821 
-0.002651058956097573 
-0.06848746424777448 
-0.005151554753579710 
-0.01059555337908631 
0.006280387051103111 
-0.04388364554538940 
0.001344704061476427 
-0.01226478931287878 
0.01294888880902029 
-0.03856661824865400 
0.01046566910451717 
-0.01271282563371240 
-0.01059555337908631 
0.002587086441899453 
0.01816337671381586 
-0.03814150019424278 
0.06214926646075976 
-0.001005795854272977 
-0.01052166298474907 
-0.01059555337908631 
0.001250503662110575 
0.02554445451468136 
-0.01059555337908631 
-0.03032942315963961 
-0.007106153663408557 
-0.01059555337908631 
-0.01059555337908631 
-0.01059555337908631 
-0.01293063705997797 
-0.01348298300742618 
-0.01965400942736250 
0.03087073293701730 
-0.01059555337908631 
0.001250503662110575 
-0.01979594886296050 
-0.002673235539613334 
-0.04768846658388906 
0.01332213121792407 
-0.02399178278574393 
-0.01059555337908631 
-0.002673235539613334 
-0.07393791779599349 
-0.01052166298474907 
0.02336923098403065 
-0.001005795854272976 
-0.01450494074026608 
-0.01965662824291691 
0.02734926542785186 
0.003034702105494402 
0.1106673473930295 
0.05113656269085812 
0.01501338362288827 
-0.01059555337908631 
0.02057014824839465 
-0.005116006636435451 
0.006304604060736446 
-0.01059555337908631 
-0.004032485599388968 
-0.02399178278574393 
0.009552162560559331 
-0.002651058956097573 
-0.05109085275223555 
-0.01059555337908631 
0.01348859151586437 
0.01607291634055322 
0.06713368773641544 
0.04437434656794395 
0.02197827147118570 
-0.01059555337908631 
0.02806463824070911 
0.004012643300853043 
0.001250503662110575 
-0.01023526666912441 
0.01916136576762741 
-0.01059555337908631 
-0.01059555337908631 
0.001352685317991561 
0.02190040010655024 
-0.02574018239433454 
-0.01059555337908631 
-0.005151554753579710 
0.006280387051103111 
0.02534534736505925 
-0.01059555337908631 
-0.01226478931287878 
-0.01784878010745677 
0.07065537642671986 
-0.01059555337908631 
-0.005116006636435451 
0.02057014824839465 
0.01435808871194903 
-0.02316588717557398 
0.01700544464188245 
-0.01059555337908631 
-0.01059555337908631 
-0.01784878010745677 
-0.01059555337908631 
0.005322100675179821 
-0.01059555337908631 
0.02554445451468136 
-0.03796210736521900 
-0.01160299023588283 
-0.01059555337908631 
-0.01059555337908631 
0.01607291634055322 
-0.01059555337908631 
-0.01059555337908631 
-0.01059555337908631 
0.03087073293701730 
-0.002651058956097573 
-0.01059555337908631 
0.006692319108181409 
0.009409042960444902 
0.02554445451468136 
0.05653422742978287 
0.001344704061476425 
0.001232237216339136 
-0.03814150019424278 
0.01123904792815440 
-0.01059555337908631 
-0.002651058956097573 
-0.06226497338579157 
-0.01828787727230725 
-0.01059555337908631 
0.03087073293701730 
-0.03544946562051872 
-0.04718276867914381 
0.09479607148306433 
-0.03571395539959917 
0.02647870620761655 
-0.01059555337908631 
-0.01812955887735566 
-0.01059555337908631 
-0.01059555337908631 
-0.01059555337908631 
-0.01059555337908631 
0.01716685506256196 
-0.02857802359617755 
-0.01059555337908631 
-0.01222574644373326 
0.003082037093728645 
0.001344704061476425 
-0.01059555337908631 
-0.01059555337908631 
-0.01059555337908631 
0.004914011141934570 
-0.01059555337908631 
0.001344704061476427 
-0.08468742338199930 
0.004270888232268809 
0.02734926542785186 
0.001344704061476427 
-0.06514092836984148 
-0.003002305475893518 
0.006351621791764213 
-0.04718276867914381 
-0.01052166298474907 
0.004270888232268809 
-0.002673235539613334 
-0.02054113602303270 
-0.06238596506263162 
-0.002307814027563073 
-0.009891908758705952 
0.004914011141934570 
-0.01059555337908631 
-0.01059555337908631 
-0.002673235539613334 
-0.01052166298474907 
-0.01417513490013022 
-0.01059555337908631 
-0.01059555337908631 
-0.01412650087806586 
-0.006821360324206622 
-0.01059555337908631 
0.01607291634055322 
-0.01059555337908631 
-0.05443579861804720 
0.01607291634055322 
0.01987525486799274 
-0.01059555337908631 
-0.01059555337908631 
-0.01059555337908631 
-0.01896683373790561 
-0.01059555337908631 
-0.002673235539613334 
-0.01059555337908631 
-0.01059555337908631 
-0.01491740095889168 
-0.01059555337908631 
0.0009296087660917883 
-0.1024859527921585 
-0.02566865129432797 
-0.01517039713314042 
0 
-0.05424391030791614 
-0.03143010299371696 
-0.007023271786381235 
0.04269721348358532 
-0.001449519302619854 
-0.001449519302619854 
0.01543686903634377 
-0.01315683134417154 
0.08933743379580475 
-0.04327125080356496 
-0.01517039713314042 
-0.04944488389250231 
-0.01035187307247689 
-0.01517039713314042 
0.09972139186800555 
-0.03299430810514416 
-0.07720583940782216 
-0.06598048701738773 
-0.01109974725618919 
-0.04258611633988262 
-0.01517039713314042 
0.01664513363168459 
-0.009061839594165948 
-0.05424391030791614 
-0.01035187307247689 
0.2153285233641528 
-0.01866791858627729 
-0.04944488389250226 
-0.02069274225961851 
-0.05424391030791614 
-0.009061839594165948 
0.002512842401201201 
-0.01517039713314042 
-0.009061839594165948 
-0.03378292162266034 
-0.004796569467982171 
-0.01517039713314042 
0.004096699373221015 
-0.004796569467982171 
-0.02463014296411252 
-0.06324656150469750 
-0.009061839594165948 
-0.01654320588134320 
0.004435462231505933 
-0.01517039713314042 
-0.01517039713314042 
0.01133425004958993 
-0.06992805164221363 
-0.01517039713314042 
-0.03807523936286354 
-0.01517039713314042 
-0.01517039713314042 
-0.06152724163200996 
0.006444568353418228 
-0.05424391030791614 
-0.05424391030791614 
-0.001449519302619854 
0.09068654886490870 
-0.001449519302619854 
0.07180478546321133 
-0.01165109514471768 
-0.004796569467982171 
-0.03053578946534982 
-0.001449519302619854 
-0.05424391030791614 
-0.01035187307247689 
-0.07497356045438842 
-0.004796569467982171 
-0.01517039713314042 
-0.02536818176456297 
-0.01517039713314042 
0.05804605488968360 
0.05402689585679214 
-0.01517039713314042 
-0.01294861102215505 
-0.05424391030791614 
-0.001449519302619854 
-0.1294810004623016 
0.02837678645282959 
-0.004796569467982171 
-0.05563558862001083 
0.04082349435686287 
-0.001449519302619854 
-0.06547887085863732 
0.02523583856081339 
-0.05424391030791614 
-0.01517039713314042 
-0.05377829364618943 
0.004179514700089803 
-0.05424391030791614 
-0.001449519302619854 
-0.03108836453662335 
-0.004796569467982171 
-0.07135032911701620 
-0.1040293173202442 
0.02094952216802414 
8.673617379884035e-19 
-0.07362258802703339 
-0.04037256118962121 
8.673617379884035e-19 
-0.009061839594165948 
-0.004796569467982171 
0.006175540949794105 
-0.05424391030791614 
-0.03872958500498214 
-0.05424391030791614 
-0.05424391030791614 
-0.03679389069348425 
-0.02147394987118383 
-0.02067892768566114 
0.01488893971637438 
-0.02147394987118383 
-0.02147394987118383 
0.04388059943146794 
-0.01697323940213931 
0.01488893971637438 
-0.01324953485295526 
-0.009926231380797934 
-0.02147394987118383 
0.003295368576678730 
0.0009729656719191519 
0.006476069990813287 
-0.02175163729115250 
-0.01324953485295526 
-0.01697323940213931 
0.006903111827078031 
-0.001707110961244723 
0.01488893971637438 
0.0007001361549133990 
-0.02147394987118383 
0.01488893971637438 
0.01488893971637438 
-0.01324953485295526 
-0.01324953485295526 
-0.1389623159103459 
-0.007549794648498144 
-0.005620502239350690 
-0.02147394987118383 
-0.009773828823672972 
-0.03613984459604282 
0.01279714905304618 
-0.02821511638359181 
-0.04233861250361804 
0.02504606112914035 
0.01488893971637437 
0.006903111827078031 
-0.0008478760533812806 
0.01867371312961195 
0.05300577590383725 
-0.04249742549606164 
0.002380149371761311 
-0.02147394987118383 
-0.02821511638359181 
0.006607764294331569 
0.04455973196240883 
-0.01697323940213931 
0.03828368187615426 
0.0007001361549133990 
-0.02147394987118383 
0.01488893971637438 
0.06497785228338080 
-0.01697323940213931 
0.01488893971637438 
0.01507614238543464 
-0.003148510163950840 
-0.02147394987118383 
0.07969758381694782 
0.01488893971637438 
-0.02147394987118383 
-0.03462783112067089 
0.006607764294331569 
-0.02147394987118383 
0.03249507142562226 
0.02029786377684233 
0.0007457843804716756 
-0.02147394987118383 
-0.05186122924135712 
-0.02147394987118383 
-0.02147394987118383 
0.01458053235870032 
0.005762338340589227 
-0.02215290633678216 
0.04417114412767802 
0.008411657102757146 
0.006476069990813287 
-0.02147394987118383 
-0.04913198424101352 
-0.06791845535510490 
-0.004370901359007942 
0.02921448677603280 
0.01488893971637438 
-0.02790976931011178 
-0.03049181034653000 
0.01488893971637438 
-0.02147394987118383 
-0.02147394987118383 
0.01488893971637438 
-0.02147394987118383 
0.003295368576678730 
-0.08085087711693582 
0.01488893971637438 
-0.01880521349964243 
0.006903111827078031 
0.0008288222140019619 
0.008659013796865008 
-0.02215290633678216 
0.05340370403824994 
-0.01324953485295526 
0.004062926811061346 
-0.1722490364928498 
-0.02147394987118383 
-0.07306874613602046 
0.01351808400449212 
0.01406320674980893 
0.03652062919711759 
-0.07065691109558803 
0.02770358360377907 
-0.05016392828391793 
-0.02147394987118383 
0.01488893971637437 
0.01578391598273066 
0.01488893971637438 
-0.02147394987118383 
0.02345435645282144 
0.01488893971637438 
0.006903111827078031 
-0.02147394987118383 
-0.01339622940665764 
-0.01339622940665764 
-0.002710623587217531 
-0.01755986286655478 
0.04273195906564051 
-0.01179081316199308 
-0.002710623587217531 
-0.01339622940665764 
-0.01821047758748657 
0.05153328672069857 
-0.01339622940665764 
-0.01339622940665764 
-0.01339622940665764 
-0.01376783078344182 
-0.01339622940665764 
-0.002710623587217531 
-0.01339622940665764 
-0.01339622940665764 
-0.002710623587217531 
-0.01339622940665764 
-0.01339622940665764 
-0.01339622940665764 
0.003560659721234126 
-0.01339622940665764 
-0.01339622940665764 
-0.01339622940665764 
-0.01339622940665764 
-0.01339622940665764 
-0.01339622940665764 
-0.01339622940665764 
-0.01376783078344182 
-0.01339622940665764 
-0.01339622940665764 
-0.01339622940665764 
-0.01755986286655478 
-0.01339622940665764 
-0.01339622940665764 
-0.01339622940665764 
-0.01339622940665764 
0.05153328672069857 
-0.01339622940665764 
-0.01339622940665764 
-0.01339622940665764 
-0.002400982464558839 
-0.01339622940665764 
-0.01339622940665764 
-0.01339622940665764 
-0.01339622940665764 
-0.001642208812288649 
0.003560659721234126 
-0.01339622940665764 
-0.01339622940665764 
-0.002710623587217531 
0.003560659721234126 
-0.002710623587217531 
-0.01339622940665764 
-0.001642208812288649 
-0.01339622940665764 
-0.01339622940665764 
-0.01339622940665764 
-0.01339622940665764 
-0.01339622940665764 
-0.01339622940665764 
-0.01339622940665764 
-0.01339622940665764 
-0.001642208812288649 
-0.01339622940665764 
-0.01339622940665764 
-0.002710623587217531 
0.05153328672069857 
0.03988749364506105 
0.003560659721234126 
-0.01339622940665764 
-0.001642208812288650 
-0.002710623587217531 
-0.001642208812288649 
-0.002710623587217531 
-0.001642208812288649 
-0.01339622940665764 
-0.01339622940665764 
0.05153328672069857 
-0.01339622940665764 
-0.01339622940665764 
-0.01339622940665764 
-0.01339622940665764 
-0.01339622940665764 
-0.01339622940665764 
0.003560659721234126 
-0.01821047758748657 
-0.01339622940665764 
-0.01339622940665764 
-0.01339622940665764 
-0.002710623587217531 
0.01284269422888950 
0.01157411382429832 
-0.01339622940665764 
-0.01339622940665764 
-0.01339622940665764 
-0.01339622940665764 
-0.01339622940665764 
-0.01339622940665764 
-0.001642208812288650 
-0.01339622940665764 
-0.002710623587217531 
-0.01339622940665764 
0.04457060381211450 
0.01068560581944011 
0.01068560581944011 
0.01068560581944011 
0.02757911822332248 
0.01068560581944011 
0.01068560581944011 
0.01068560581944011 
0.01068560581944011 
-0.05959729060416913 
0.01068560581944011 
0.01068560581944011 
0.01068560581944011 
0.01068560581944011 
-0.06404132099082502 
0.01068560581944011 
0.01068560581944011 
-0.03298608845785424 
-0.03298608845785434 
-0.03085260763175579 
0.01068560581944011 
0.01068560581944011 
0.01068560581944011 
0.03776593069901876 
0.01068560581944011 
0.01068560581944011 
-0.06958981715075241 
0.01068560581944011 
0.03985655610622686 
0.01326677279275231 
0.01326677279275232 
0.02757911822332248 
0.01068560581944011 
0.01068560581944011 
0.03332879653848352 
0.01068560581944011 
0.03094893120556910 
0.01068560581944011 
0.01068560581944011 
0.01068560581944011 
0.06492951612735624 
0.01068560581944011 
0.02248878766597791 
0.01068560581944011 
0.01068560581944011 
0.01068560581944011 
0.01068560581944011 
0.01068560581944011 
0.01068560581944011 
0.04052207976180485 
0.01068560581944011 
0.01068560581944011 
0.01068560581944011 
0.02173472037063710 
-0.01465164127828944 
0.01068560581944011 
0.01068560581944011 
0.01068560581944011 
0.004968245048330254 
0.01068560581944011 
0.01068560581944011 
0.01068560581944011 
0.05882218590833131 
0.01068560581944011 
0.01068560581944011 
0.03776593069901876 
0.01068560581944011 
0.01068560581944011 
0.01068560581944011 
0.01068560581944011 
0.01068560581944011 
-0.01357429546559572 
0.01068560581944011 
0.01068560581944011 
0.01068560581944011 
-0.009418796998254783 
0.03776593069901876 
-0.02265462858090879 
0.03776593069901876 
0.01326677279275231 
-0.004588949703586699 
0.04622842099181002 
0.01068560581944011 
0.01068560581944011 
0.01068560581944011 
0.01068560581944011 
-0.1409053518940884 
0.01068560581944011 
0.01068560581944011 
0.01068560581944011 
0.007907878272684772 
-0.01879081671411654 
0.01068560581944011 
-0.03406167602656381 
0.02341332289549643 
0.01068560581944011 
0.03577664560112026 
-0.03708737386106654 
0.01068560581944011 
-0.01299627758799761 
0 
0 
-0.05782744977465307 
0.02525613050751269 
-0.008520693387488256 
0 
0.05767682648723019 
0.009522980375075877 
0.04241898015761131 
-0.006108557538974454 
-0.002050734201636406 
-0.006108557538974454 
-0.006108557538974454 
-0.002050734201636406 
-0.006108557538974454 
-0.006108557538974454 
-0.006108557538974454 
-0.006108557538974454 
-0.0009182994830420209 
-0.009371924599594081 
-0.006108557538974454 
-0.006108557538974454 
-0.006108557538974454 
-0.03038333890357118 
-0.006108557538974454 
-0.02155609446282864 
-0.0009182994830420209 
-0.03038333890357118 
0.06676172725170353 
0.01156192599122042 
-0.006108557538974454 
-0.006108557538974454 
-0.006108557538974454 
-0.006108557538974454 
-0.009535509849220102 
-0.006108557538974454 
-0.01794448645808945 
-0.006108557538974454 
-0.006108557538974454 
-0.006108557538974454 
-0.006108557538974454 
-0.01333577822624621 
-0.003697209174685564 
0.03747964146383093 
-0.007328984430109257 
0.008773175390686240 
-0.06845351298220098 
-0.006108557538974454 
-0.006108557538974454 
-0.1254787513708479 
-0.002654000234071655 
-0.009665755548547043 
-0.01794448645808945 
0.06115550700424424 
-0.0009182994830420209 
-0.006108557538974454 
-0.006108557538974454 
-0.006971198846894393 
-0.006108557538974454 
-0.006108557538974454 
-0.004079095481356787 
0.01051147510276323 
-0.007328984430109257 
-0.006108557538974454 
-0.006971198846894393 
-0.02074601918246057 
-0.005661314793763975 
0.01950361669285656 
-0.006108557538974454 
-0.006108557538974454 
0.03367507099132366 
0.04854295265225219 
-0.006108557538974454 
-0.006108557538974454 
-0.006971198846894393 
0.02478028727408712 
-0.004079095481356787 
0.01051147510276323 
-0.006108557538974454 
-0.006108557538974454 
0.02638131473753276 
0.03799696184884976 
-0.006108557538974454 
-0.006108557538974454 
0.02991894971332731 
0.03007118189446763 
-0.006108557538974454 
0.04045780394872643 
-0.007328984430109257 
-0.006108557538974454 
-0.005331373711224692 
-0.005661314793763975 
-0.006971198846894393 
-0.04294947509261922 
-0.009371924599594088 
-0.009665755548547043 
-0.006108557538974454 
-0.0009182994830420209 
-0.006108557538974454 
0.02786644889632744 
0.006599510149618310 
-0.006108557538974454 
-0.006108557538974454 
0.04716486419523149 
0.02786644889632744 
-0.006108557538974454 
0.01156192599122042 
-0.006108557538974454 
-0.04034972597547001 
-0.006108557538974454 
-0.006108557538974454 
-0.0009182994830420209 
-0.01567601561479951 
-0.01660681170016205 
-0.03038333890357118 
-0.006108557538974454 
-0.006108557538974454 
0.03918032347269188 
-0.004131324882539796 
-0.0009182994830420209 
-0.03187267971502590 
-0.01794448645808945 
-0.006108557538974454 
-0.0009182994830420209 
-0.005529690226692323 
-0.01660681170016205 
-0.006108557538974454 
-0.006108557538974454 
-0.02281067307110858 
-0.07959882744131844 
-0.006108557538974454 
-0.006108557538974454 
-0.009371924599594088 
0.04342939631513242 
-0.08017700650510438 
-0.02318882662221644 
0.01822978724218428 
-0.006108557538974454 
-0.006108557538974454 
-0.006108557538974454 
-0.006108557538974454 
-0.01794448645808945 
0.03436695174282180 
-0.02393246851097814 
-0.006108557538974454 
0.09223773799162496 
-0.006108557538974454 
0.07949479761652780 
-0.008954285991098815 
0.007566863405082186 
-0.05588173192497080 
0.008575512241547501 
0.01490400534221496 
-0.006108557538974454 
-0.01794448645808945 
-0.006108557538974454 
-0.006108557538974454 
-0.006108557538974454 
-0.006108557538974454 
0.02890711272634471 
-0.006108557538974454 
-0.006108557538974454 
-0.009665755548547043 
-0.006108557538974454 
-0.006108557538974454 
-0.006108557538974454 
-0.006108557538974454 
-0.006108557538974454 
-0.003973793619655923 
-0.02082018833645943 
-0.06097932418481150 
-0.01567601561479951 
-0.005331373711224692 
-0.006108557538974454 
0.01534691304940786 
-0.006108557538974454 
-0.006108557538974454 
-0.005529690226692323 
0.02363685183511358 
0.003393997463617277 
-0.006108557538974454 
0.01534691304940786 
-0.02183366902026186 
-0.01343421434979053 
-0.009371924599594088 
0.0005327668960601194 
-0.006108557538974454 
-0.006108557538974454 
-0.006108557538974454 
-0.009371924599594088 
-0.008975958540018616 
-0.006108557538974454 
-0.03473956150285829 
-0.02335789826242490 
0.02091472336708739 
-0.006108557538974454 
0.007361158959326471 
-0.006108557538974454 
0.03367507099132366 
-0.007328984430109257 
-0.006108557538974454 
-0.006971198846894393 
0 
-0.02281067307110858 
-0.008954285991098815 
-0.06405261529815094 
0.001305418927951059 
-0.01567601561479951 
0.03799696184884976 
-0.006108557538974454 
-0.006108557538974454 
0.01902030304862070 
0.03175720794301178 
-0.006108557538974454 
-0.006108557538974454 
-0.01660681170016205 
-0.01333577822624621 
0.03465457991245826 
-0.03038333890357118 
-0.01567601561479951 
0 
-0.05424391030791614 
-0.05424391030791614 
-0.05424391030791614 
-0.004741384060242718 
-0.01517039713314043 
-0.01557833893260400 
-0.02954809527012146 
-0.01517039713314043 
-0.01517039713314043 
-0.1445240978366029 
-0.01517039713314043 
-0.01517039713314043 
-0.006108557538974455 
-0.009061839594165948 
-0.05424391030791614 
0 
0 
-0.01941995426541306 
0.01809566381520325 
-0.02953551947400814 
-0.004163633459897145 
0.01708989175722651 
0 
0 
-0.004163633459897145 
-0.008037534117206294 
-0.004163633459897145 
-0.004163633459897145 
-0.09543850437154444 
0 
0.01175402059436898 
-0.004163633459897145 
-0.004163633459897145 
-0.004163633459897145 
0.01175402059436898 
-0.004163633459897145 
-0.03981635460107710 
0.02860044096959786 
-0.004163633459897145 
0.01175402059436898 
0.01809566381520325 
-0.0005229563257750367 
0.02848722455864678 
-0.004163633459897145 
-0.008037534117206294 
-0.004163633459897145 
-0.008037534117206294 
-4.045922350751476e-05 
-0.004163633459897145 
-0.008037534117206294 
0.02860044096959786 
-0.004163633459897145 
-0.02953715799733365 
-0.004163633459897145 
-0.02409501656324457 
-0.02953715799733365 
-0.008037534117206294 
0 
0 
-0.004163633459897145 
-0.004163633459897145 
-0.008037534117206294 
-0.01220116757710343 
-0.008037534117206294 
0.01175402059436898 
-0.008037534117206294 
-0.004163633459897145 
0 
-0.004163633459897145 
-0.008037534117206294 
-0.004163633459897145 
-0.008037534117206294 
0 
-0.01268390887582801 
0.01175402059436898 
-0.008037534117206294 
0.04880686278636651 
-0.01619831489774380 
-0.01047655292431424 
-0.03455695140461110 
-0.004163633459897145 
-0.004163633459897145 
0 
0.02516383804025703 
0 
0.007862829569490406 
-0.004163633459897145 
-0.06710116036588648 
-0.004163633459897145 
0 
0 
0.01686993412982455 
0.01504315601859758 
0.01175402059436898 
-0.004163633459897145 
-0.008037534117206294 
-0.004163633459897145 
-0.0007419815582963437 
-0.004163633459897145 
0.003965823171250679 
-0.06303276046233460 
0.01175402059436898 
-0.01528728979878925 
-0.006935234328656162 
-0.004163633459897145 
0 
-0.004163633459897145 
-0.004163633459897145 
0.02691290099636505 
0.007550408924660590 
0.03143459526390680 
0 
0.01086867629611784 
-0.008037534117206294 
-0.02618301886457296 
0.01175402059436898 
0 
-0.03776642579837505 
-0.03887031953609536 
-0.01385592040086054 
-0.004163633459897145 
-0.008037534117206294 
-0.008037534117206294 
0 
-0.009298321824690562 
-0.09344115459277594 
-0.004163633459897145 
-0.02953715799733365 
-0.009929067522264683 
-0.04151853072025340 
-0.03764031838604495 
-0.01446326033266106 
-0.09951684124164067 
-0.01703805420928195 
-0.004163633459897145 
0 
-0.005093108968926102 
0.01175402059436898 
0.01402557154752816 
-0.01174728998705027 
-0.004163633459897145 
-0.004440292487225925 
-0.004163633459897145 
-0.004163633459897145 
-0.004163633459897145 
0.02060055146530677 
-0.004163633459897145 
-0.1039550325047233 
0.01402557154752816 
-0.04176895084472204 
0.02177466893204021 
0.02505603783336619 
0.09380125863832212 
0.01402557154752816 
0.01466970772910496 
-0.004163633459897145 
-0.02908172428109542 
0.05419787550036192 
0.01402557154752816 
-0.004163633459897145 
0.02730603584033161 
0.01402557154752816 
-0.004163633459897145 
0.009570075456194650 
0.01402557154752816 
-0.004163633459897145 
-0.004163633459897145 
0.02033229445982660 
0.1027804795490565 
-0.004163633459897145 
0.01402557154752816 
-0.004163633459897145 
-0.004163633459897145 
-0.004163633459897145 
-0.004163633459897145 
0.01773443749281682 
-0.004163633459897145 
0.01402557154752816 
0 
-0.01220764684591010 
-0.03098004699421906 
0 
-0.008825839849681060 
0 
0 
-0.002043718625945335 
-0.01574787520392481 
0 
0 
0.005244469054172803 
0 
0 
0 
-0.01574787520392481 
0 
0 
0 
0 
0 
0.007512920154434440 
0 
0 
0 
-0.002030674459328586 
0.006864665662330760 
-0.03892617235331898 
0.03627889982153057 
0 
0 
0 
0 
0 
-0.01051488169014155 
0 
-0.004321946369010220 
-0.03436068540102618 
0 
-0.01587361947708845 
-0.01587361947708845 
0 
-0.006387150804562806 
0 
0 
-0.003330789894664218 
0 
0.03970665264027833 
-0.01574787520392481 
0 
-0.02342169701548372 
0 
-0.08203815138227177 
-0.005843425823591547 
-0.02559291788117654 
0 
-0.05780926681536397 
0 
0 
0.03565322715028028 
0 
0 
0 
-0.02796798740670383 
0 
0 
0 
0 
0 
-0.003878988353999387 
0 
0 
-0.004074393085273924 
0 
-0.009220398507923670 
-0.01106532157617569 
0 
0.01177060130253442 
-0.01433603167596431 
-0.01143646925674975 
0 
-0.009220398507923670 
-0.03183472878322124 
0.02114208243032845 
0 
-0.009220398507923670 
0 
-0.01916410530651136 
0 
0 
-0.004321946369010220 
0.07403156757218510 
0.01853866198524507 
0 
0 
0 
0 
0 
-0.05171525208898455 
0 
0 
0.02426660975826016 
0 
0.005244469054172803 
0 
-0.05780926681536397 
0 
-0.03002955318966455 
0 
-0.001679631043785395 
-0.03002955318966455 
0 
0 
0 
0 
0 
0 
0 
-0.009220398507923670 
0 
0 
-0.05780926681536397 
-0.002030674459328586 
-0.01091057964445194 
-0.01220764684591010 
0.006891719695099766 
0.004341563694778515 
-0.003669692730151774 
0 
0 
0 
0.01137797012943570 
-0.001385781703756920 
-0.05780926681536397 
6.680871768227452e-05 
0 
0 
0 
-0.04246242910871128 
-0.06048202503722575 
-0.01220764684591010 
0.01559471200539606 
0 
0 
-0.03002955318966455 
0 
0 
0 
0 
0 
0 
0 
0 
-0.05780926681536397 
-0.02941976915766421 
-0.009220398507923670 
-0.01647208602921991 
-0.01647208602921991 
0 
0 
-0.01535542111483894 
-0.05780926681536397 
-0.03002955318966455 
-0.003669692730151774 
0 
0 
0 
0 
-0.02816022551602663 
-0.08688346995619561 
-0.06099126587253881 
0.02426660975826016 
0 
-0.01917525862268910 
-0.002283911026394855 
0 
-0.003669692730151774 
0 
0 
0 
0 
0 
-0.04309842947664174 
0 
0 
0.01015730869168475 
0 
0 
0.02023514421433075 
0 
0 
0 
-0.004286041327363959 
-0.03253608355220387 
0 
0 
0 
-0.01574787520392481 
0.03002289043300445 
0 
-0.009220398507923670 
0 
-0.0003573349898591250 
0 
0.007197509716247077 
0 
0.04358880130961897 
0 
0 
0 
-0.08365561789703208 
0 
0.01378836506562280 
0 
0 
0 
0 
0 
-0.01916410530651136 
0 
-0.01647208602921991 
0 
0 
-0.03824957746637939 
0 
-0.09558451744925975 
0 
0 
0 
-0.002967309128860275 
0 
0 
0 
-0.002043718625945335 
0 
0.02426660975826016 
0 
-0.02796798740670383 
0 
0.02023514421433075 
0 
-0.003669692730151774 
0 
0.01205457546590126 
0 
0.03097378089980749 
0 
0 
0 
-0.009220398507923670 
-0.005850042473521686 
0 
0.02367289771696608 
-0.01630987545734196 
0 
0 
-0.05793025302102631 
0.004341563694778513 
0 
0 
0 
0 
0 
0 
0 
-0.02796798740670383 
0 
0 
0 
-0.001385781703756920 
0 
0 
0.03002289043300445 
-0.02796798740670383 
0 
0 
0 
0 
0 
-0.02852676121099448 
-0.002030674459328586 
0 
0 
-0.05679382588492015 
0 
0 
-0.003669692730151774 
0.006891719695099766 
0 
-0.03183472878322126 
-0.05470250311549840 
0 
0 
0 
0.01559471200539606 
-0.02706170698854210 
0 
-0.005724192656336428 
0 
0 
0 
0 
0 
0.001227252450694157 
0 
-0.01853499866428859 
0 
0 
0.01655698096064302 
0 
0 
0 
-0.008011951781282145 
0 
-0.01106532157617569 
0 
0 
0 
0 
0 
0 
-0.005724192656336428 
0 
0 
0.005244469054172803 
0 
0 
-0.03100159874171463 
0 
0 
5.313631599976406e-05 
0 
0 
0.007197509716247077 
-0.01917525862268910 
0 
0 
-0.02796798740670383 
0 
0 
0 
0.01813869173045847 
-0.004444910594427098 
0 
0 
0 
0 
0 
0 
0 
-0.03002955318966455 
0 
-0.01647208602921991 
-0.002283911026394855 
0 
0 
0 
0 
0 
0 
0 
-0.01647208602921991 
0 
0.05582480069533940 
0 
0 
0.006864665662330760 
-0.1283083618395239 
-0.009220398507923670 
0.02426660975826016 
-0.01602134882674118 
-0.004074393085273924 
0.01145584608321490 
-0.03002955318966455 
0.02426660975826016 
0 
0 
0 
0 
0 
-0.01602134882674118 
0 
0 
0 
0.01176782562257569 
-0.03788903173690034 
0 
0 
0 
0 
-0.03098004699421906 
0 
-0.01220764684591010 
0 
-0.005168624547158806 
0 
-0.02852676121099448 
0.02426660975826016 
-0.04281386754842105 
0.02709305374176520 
-0.002030674459328585 
0.0004550701522922690 
-0.002030674459328585 
0.01394541585334777 
0.01394541585334777 
0.01394541585334777 
0.008844736757923388 
-0.002030674459328585 
0.01394541585334777 
0.01394541585334777 
0.008844736757923388 
0.03288752334938688 
0.01394541585334777 
0.01394541585334777 
0.01394541585334777 
0.01175769060629422 
0.01394541585334777 
0.008844736757923388 
0.005555749247716643 
0.01394541585334777 
0.01623220660872565 
0.01394541585334777 
0.008844736757923388 
0.03245366188801547 
0.01394541585334777 
0.01394541585334777 
-0.002030674459328585 
0.01394541585334777 
0.01394541585334777 
0.01394541585334777 
0.01394541585334777 
0.01394541585334777 
0.01394541585334777 
-0.002030674459328585 
0.01394541585334777 
0.008844736757923388 
-0.002030674459328585 
0.01394541585334777 
0.008844736757923388 
-0.002030674459328585 
0.008844736757923388 
-0.002030674459328585 
0.06469028189674557 
0.008844736757923388 
0.008844736757923388 
0.008844736757923388 
-0.002030674459328585 
-0.002030674459328585 
0.01394541585334777 
-0.002030674459328585 
0.01394541585334777 
0.008844736757923388 
0.003525344403981136 
0.01394541585334777 
0.005100679095424370 
0.008844736757923388 
0.01302748680327556 
0.008844736757923388 
0.009543819076733434 
0.01394541585334777 
0.01394541585334777 
-0.002030674459328585 
0.01394541585334777 
0.008844736757923388 
0.008844736757923388 
0.005555749247716643 
0.01394541585334777 
0.008844736757923388 
-0.002030674459328585 
-0.002030674459328585 
0.01394541585334777 
0.0004550701522922690 
0.008844736757923388 
0.01394541585334777 
0.005555749247716643 
0.008844736757923388 
0.01394541585334777 
0.01839308273828116 
0.008844736757923388 
-0.002030674459328585 
-0.002030674459328585 
0.01394541585334777 
-0.002030674459328585 
-0.002030674459328585 
-0.002030674459328585 
0.008844736757923388 
-0.002030674459328585 
0.008844736757923388 
0.01394541585334777 
-0.005685545636457665 
0.01394541585334777 
-0.008016330036284672 
0.005100679095424370 
0.0004550701522922692 
-0.002030674459328585 
0.01394541585334777 
0.01394541585334777 
0.01394541585334777 
0.02351594785269545 
0.01394541585334777 
0.02363338057971699 
0.01394541585334777 
-0.002030674459328585 
0.0004550701522922690 
-0.002030674459328585 
0.01394541585334777 
0.009604905396413380 
-0.01622901853165174 
0.005100679095424370 
0.008844736757923388 
-0.04254895770510004 
0.005100679095424370 
0.008844736757923388 
-0.002030674459328585 
-0.002030674459328585 
0.0004550701522922690 
0.005555749247716643 
-0.002030674459328585 
0.01394541585334777 
0.008844736757923388 
0.01394541585334777 
0.008844736757923388 
0.003070004636095784 
0.008844736757923388 
0.01394541585334777 
0.01394541585334777 
0.008844736757923388 
0.01394541585334777 
0.0004550701522922692 
0.01394541585334777 
0.01394541585334777 
0.01394541585334777 
-0.1402294265796145 
0.01394541585334777 
-0.002030674459328585 
0.01394541585334777 
0.01394541585334777 
-0.002030674459328585 
-0.07252496492488487 
0.008844736757923388 
-0.002030674459328585 
0.008844736757923388 
-0.002030674459328585 
0.005100679095424370 
0.005555749247716643 
0.008844736757923388 
0.008844736757923388 
-0.002030674459328585 
0.008844736757923388 
-0.002030674459328585 
0.008844736757923388 
-0.001549382453646575 
0.01175769060629422 
-0.002030674459328585 
0.02664421577010839 
0.01394541585334777 
0.005555749247716643 
0.03842183075422548 
-0.002030674459328585 
0.01394541585334777 
0.008844736757923388 
-0.02920450526361769 
0.01394541585334777 
0.008844736757923388 
-0.002030674459328585 
0.0004550701522922690 
0.002485744611620854 
0.006814062298594791 
0.002485744611620855 
0.09357965469632950 
0.002485744611620855 
0.002485744611620855 
-0.03966484617008093 
0.002485744611620855 
0.002485744611620854 
0.008844736757923390 
0.002485744611620855 
0.03331436898534890 
0.002485744611620854 
0.002485744611620855 
0.01441812998126804 
0.002485744611620854 
-0.03946145055817774 
0.002485744611620854 
0.002485744611620855 
0.008844736757923390 
0.008844736757923390 
0.002485744611620855 
0.002485744611620854 
0.002485744611620855 
0.002485744611620855 
0.008844736757923390 
-0.004585123050511888 
0.008844736757923390 
0.002485744611620854 
0.008844736757923390 
0.002029648074740390 
0.002485744611620854 
0.008844736757923390 
0.008844736757923390 
-0.02298697788304048 
-0.01597198375519468 
-0.01623845639941187 
-0.03057540835263797 
-0.008389666605631153 
-0.008389666605631153 
-0.008389666605631150 
-0.02971000097446273 
0.02442823638746237 
-0.05936935911976560 
-0.008389666605631150 
-0.008389666605631160 
-0.008389666605631153 
-0.008389666605631150 
0.002629138012314981 
-0.008712719414358578 
0.003182501438667969 
-0.01440942293765963 
-0.008389666605631150 
-0.008389666605631153 
-0.008389666605631153 
-0.002030674459328586 
-0.008389666605631153 
-0.008389666605631153 
0.01663328458824775 
-0.008389666605631150 
-0.008389666605631153 
-0.008389666605631153 
-0.008389666605631153 
-0.02298697788304048 
-0.02434635575427661 
-0.008389666605631153 
-0.008389666605631153 
-0.008389666605631150 
-0.01016656992041292 
-0.008389666605631153 
-0.008389666605631153 
-0.008389666605631150 
-0.008389666605631153 
-0.008389666605631150 
0.02010719845769781 
-0.008389666605631153 
-0.008389666605631153 
-0.02298697788304048 
-0.008389666605631153 
-0.008389666605631153 
-0.008389666605631153 
-0.008389666605631153 
-0.002734507207871125 
-0.008389666605631153 
-0.008389666605631150 
-0.008389666605631153 
-0.008389666605631153 
-0.008389666605631153 
-0.002030674459328586 
-0.008389666605631153 
0.0005387705755977214 
-0.002030674459328586 
-0.008389666605631153 
0.004551135352908178 
-0.008389666605631153 
-0.008389666605631153 
-0.02329565068146289 
-0.002734507207871125 
-0.008389666605631153 
0.01071878691079329 
-0.008389666605631153 
-0.008389666605631153 
-0.008389666605631153 
-0.008389666605631153 
-0.008389666605631153 
-0.008389666605631153 
-0.02298697788304048 
-0.008389666605631153 
-0.02298697788304048 
-0.008389666605631153 
-0.003403442734976074 
-0.02971000097446273 
-0.008389666605631150 
-0.002734507207871125 
-0.01658755449503439 
-0.02298697788304048 
0.01042813252170278 
0.02974852499948280 
-0.02298697788304048 
-0.008389666605631153 
-0.008389666605631160 
-0.008389666605631153 
-0.02434635575427661 
-0.008389666605631153 
-0.008389666605631153 
-0.008389666605631153 
-0.008389666605631150 
-0.002043718625945335 
-0.002043718625945335 
-0.01229900267771989 
-0.01544004288201813 
0 
-0.002043718625945335 
0.04328544800085345 
0.01208792403629647 
-0.02884076184519747 
-0.002043718625945335 
-0.008230884083125268 
-0.002043718625945335 
-0.002043718625945335 
-0.001712235168213009 
-0.002043718625945335 
-0.0007217377013003920 
-0.01419281539889210 
0.005632903937904030 
-0.002043718625945335 
-0.002043718625945335 
-0.002043718625945335 
0 
-0.002043718625945335 
-0.02233405862419489 
-0.002043718625945335 
-0.02434578437345217 
0.002899743688266557 
-0.02133674303618403 
-0.007797367137407123 
-0.0007217377013003920 
0.006937542852376360 
-0.002043718625945335 
-0.002043718625945335 
-0.005204506553645428 
0.0002656695270665044 
0.002347868980197228 
0.05286899059875473 
-0.002043718625945335 
-0.002043718625945335 
0.01208792403629647 
0.04284049419796972 
0.003030912816005065 
0.01208792403629647 
0.02337830558946370 
-0.002043718625945335 
-0.002043718625945335 
-0.002043718625945335 
-0.002043718625945335 
-0.002043718625945335 
0.04148215148032582 
-0.005204506553645428 
-0.008230884083125268 
-0.01544004288201813 
-0.01697676130226887 
-0.06111650172804865 
-0.01404591998832216 
-0.06589261674719870 
-0.002043718625945335 
-0.002043718625945335 
-0.002043718625945335 
-0.009078820184120586 
-0.002043718625945335 
-0.006436816370368630 
0.0002656695270665044 
-0.002043718625945335 
-0.005204506553645428 
-0.002043718625945335 
-0.002043718625945335 
-0.01154134445770168 
0.008923643012576492 
-0.002043718625945335 
0 
-0.03405670541675474 
-0.01154134445770168 
-0.002043718625945335 
-0.002043718625945335 
-0.002043718625945335 
0 
0.008318438899617740 
0.005242856882737033 
-0.002043718625945335 
-0.07309054376225635 
-0.01544004288201813 
-0.01544004288201813 
-0.01419744092628895 
-0.002043718625945335 
-0.01531186154713650 
-0.02203476818736368 
-0.03717424354086378 
-0.002043718625945335 
-0.005204506553645428 
-0.002043718625945335 
-0.01332155649410125 
-0.01365587293315532 
0.006937542852376360 
0.0002656695270665113 
-0.01229900267771989 
-0.002043718625945335 
-0.002043718625945335 
-0.005204506553645428 
-0.002043718625945335 
-0.002043718625945335 
0.007860036069275777 
-0.002043718625945335 
0.02337830558946370 
0.005242856882737033 
-0.03405670541675474 
-0.002043718625945335 
0.001128268616780878 
-0.002043718625945335 
-0.002043718625945335 
-0.01544004288201813 
-0.01419744092628895 
-0.004463657876436031 
-0.002043718625945335 
-0.02170563982060669 
0 
0.02626845114251978 
0 
-0.002043718625945335 
-0.002043718625945335 
-0.002043718625945335 
-0.005204506553645428 
0.01693093734205771 
-0.01815357408271713 
-0.002043718625945335 
-0.03405670541675474 
-0.002043718625945335 
-0.002043718625945335 
0.03372841170805117 
0.01164342584661841 
0.005632903937904030 
-0.002043718625945335 
0 
0.005632903937904030 
-0.01404591998832216 
0.02771881409313264 
-0.002043718625945335 
-0.002043718625945335 
-0.002043718625945335 
-0.002043718625945335 
-0.002043718625945335 
0.01412062546089290 
-0.01365587293315532 
0.02626845114251978 
0.02496277454075982 
-0.002043718625945335 
-0.002043718625945335 
-0.002043718625945335 
-0.002043718625945335 
0.02220291788312240 
0.02836783712958124 
-0.005204506553645428 
-0.005204506553645428 
-0.002043718625945335 
-0.03405670541675474 
-0.002043718625945335 
0 
-0.01154134445770168 
-0.002043718625945335 
0 
0.01693093734205771 
0.02626845114251978 
-0.002043718625945335 
-0.004463657876436031 
0.01693093734205771 
-0.03405670541675474 
-0.002043718625945335 
-0.01154134445770168 
0.005632903937904030 
0.005632903937904030 
-0.002043718625945335 
-0.0001440931552642252 
-0.002043718625945335 
-0.002043718625945335 
0.03851335412178228 
-0.004463657876436031 
-0.002043718625945335 
0.01693093734205771 
-0.02233961456007615 
-0.002043718625945335 
0 
0.01208792403629647 
-0.002043718625945335 
-0.002043718625945335 
-0.01419281539889210 
-0.005204506553645428 
0 
-0.02420150956211549 
-0.02973120248050569 
-0.02856587723265685 
-0.02957897813177129 
0.009788721102553894 
-0.005204506553645427 
-0.005204506553645427 
-0.01795615138609552 
-0.005204506553645427 
-0.005204506553645427 
-0.02973120248050569 
0.004039592902843117 
-0.005204506553645427 
-0.003160787927700104 
-0.003160787927700104 
-0.005204506553645427 
-0.003160787927700104 
0.002106050075489459 
-0.005204506553645427 
-0.01279983652757347 
0.001208916182652055 
-0.02973120248050569 
-0.005204506553645427 
0.009788721102553894 
-0.005204506553645427 
-0.004076434507015477 
-0.005204506553645427 
-0.04819536460100502 
-0.008005730884224096 
-0.02973120248050569 
0.009788721102553894 
-0.005204506553645427 
-0.02973120248050569 
-0.005204506553645427 
0.06074235626280591 
-0.02943222491848995 
-0.005204506553645427 
-0.005204506553645427 
0.02531320995366431 
0.02531320995366431 
-0.02973120248050569 
-0.03799556755461070 
0.02391812507206092 
0.003192999121554638 
-0.005204506553645427 
0.009788721102553894 
-0.02973120248050569 
0.009788721102553894 
-0.005204506553645427 
-0.003160787927700104 
-0.01197636612240506 
0.01162033186442733 
-0.02340112787758387 
-0.003160787927700104 
-0.005204506553645427 
0.04327459897495550 
-0.005204506553645427 
-0.01804987908321646 
-0.003160787927700104 
-0.003160787927700104 
-0.005204506553645427 
-0.04967537420544308 
-0.005204506553645427 
-0.005204506553645427 
-0.003160787927700104 
0.004039592902843117 
-0.005204506553645427 
-0.01120730182797730 
-0.005204506553645427 
0.01160851886439589 
-0.005204506553645427 
-0.01279983652757347 
-0.02195180393195175 
-0.01824572732329795 
0.004405087599471366 
-0.005204506553645427 
-0.02973120248050569 
-0.02461145390051885 
-0.02973120248050569 
-0.005204506553645427 
0.02394719659923524 
-0.005204506553645427 
-0.005204506553645427 
-0.003160787927700104 
-0.003160787927700097 
-0.003160787927700104 
0.009788721102553894 
-0.005204506553645427 
-0.003160787927700104 
-0.005204506553645427 
-0.02973120248050569 
-0.005204506553645427 
-0.003160787927700104 
-0.005204506553645427 
0.01162033186442733 
-0.005204506553645427 
0.004039592902843117 
0.01160851886439589 
-0.005204506553645427 
0.03959826394685214 
-0.005204506553645427 
-0.005204506553645427 
0.003067267386207956 
0.01162033186442733 
0.01160851886439589 
-0.005204506553645427 
0.01679916044868896 
-0.01805976538654234 
0.01162033186442733 
-0.003160787927700104 
-0.01804953757870827 
-0.005204506553645427 
-0.003160787927700104 
-0.003160787927700104 
-0.005204506553645427 
-0.003160787927700104 
-0.005204506553645427 
-0.003160787927700104 
0.004011265794944679 
-0.04175085924064738 
-0.02829489420007922 
0.009788721102553894 
0.06803343028471510 
-0.005204506553645427 
-0.005204506553645427 
-0.005204506553645427 
-0.005204506553645427 
-0.02973120248050569 
-0.003160787927700104 
-0.005204506553645427 
0.004039592902843117 
-0.005204506553645427 
0.01160851886439589 
0.002771881576674899 
-0.005204506553645427 
0.002771881576674899 
0 
0 
0 
-0.06020484864068883 
0 
0 
-0.002043718625945336 
0 
-0.002043718625945335 
-0.002043718625945335 
-0.002043718625945335 
-0.01128930667179211 
-0.01128930667179211 
-0.01128930667179211 
0.01997989532201989 
-0.01128930667179211 
-0.01128930667179211 
0.01997989532201989 
-0.01128930667179211 
-0.01128930667179211 
-0.01128930667179211 
-0.01128930667179211 
0.01997989532201989 
-0.01128930667179211 
-0.01128930667179211 
-0.01128930667179211 
-0.01128930667179211 
0.01428135876605895 
-0.004137045035718244 
0.03845058115956305 
-0.02664147856106017 
-0.01128930667179211 
0.01706134222982973 
-0.02664147856106017 
-0.01128930667179211 
-0.01956349578470044 
-0.01128930667179211 
-0.01128930667179211 
-0.01128930667179211 
0.01253100347218777 
-0.01128930667179211 
-0.01128930667179211 
-0.01128930667179211 
-0.01128930667179211 
-0.02664147856106017 
-0.01128930667179211 
0.05011680520573451 
-0.01128930667179211 
-0.01128930667179211 
0.01769817034066647 
0.01997989532201989 
0.01911311641779083 
-0.09204678549828985 
-0.0002903553573905847 
-0.01128930667179211 
-0.03411501888239019 
-0.01128930667179211 
-0.01128930667179211 
-0.04297809500537006 
-0.01128930667179211 
-0.01128930667179211 
-0.01128930667179211 
-0.01128930667179211 
-0.01128930667179211 
0.04932342821515562 
-0.01128930667179211 
-0.01128930667179211 
-0.01128930667179211 
-0.01128930667179211 
-0.04621410544449154 
-0.01128930667179211 
0.01157283135183189 
-0.01128930667179211 
-0.02016250283873463 
-0.01128930667179211 
-0.01128930667179211 
-0.005317847628667344 
0.01997989532201989 
-0.01128930667179211 
-0.01128930667179211 
0.01997989532201989 
-0.01128930667179211 
0.07280201602635963 
0.01997989532201989 
0.01997989532201989 
-0.01128930667179211 
-0.01322465762013547 
-0.05213135798130015 
-0.01128930667179211 
-0.01128930667179211 
0.01997989532201989 
0.01997989532201989 
0.01954098754838500 
0.01997989532201989 
0.02243376108571907 
-0.03723603287423122 
-0.01128930667179211 
-0.01128930667179211 
0.01997989532201989 
-0.01128930667179211 
0.01997989532201989 
-0.03822164353069764 
-0.01128930667179211 
-0.03224027934690070 
-0.01128930667179211 
-0.03215158719803493 
-0.02016250283873463 
-0.01128930667179211 
-0.01760312716400729 
0.01997989532201989 
-0.04949920913409242 
0.03497569849833156 
-0.02664147856106017 
-0.01128930667179211 
-0.009719042971427262 
-0.01876465950818420 
0 
-0.006489468854525339 
0 
2.168404344971009e-19 
0 
-0.09180740916230797 
0.01591679015109137 
0 
0 
2.168404344971009e-19 
-0.05833711254152341 
-0.01805516639414189 
0 
0 
-0.007673156530741491 
0 
-0.04345242497375754 
0.04649969052468282 
0 
0 
0 
0 
-0.03507118902146504 
0 
0 
-0.02923104329282421 
2.168404344971009e-19 
-0.01394959864654465 
-0.003559732620413213 
0 
8.369986627240408e-05 
0.02510205069724934 
0.02252303405849547 
-0.007673156530741491 
0 
0 
-0.01398359963356282 
0 
2.168404344971009e-19 
0 
2.168404344971009e-19 
0.06974116365223351 
0 
2.168404344971009e-19 
0 
0 
-0.07113921598821724 
0 
0 
-0.01136752554057850 
0 
0 
0 
0 
0 
0 
0 
0 
0 
0 
0 
0 
0 
0 
-0.0007208583752549117 
0 
-0.01805516639414189 
0 
0 
0 
-0.004374561744575707 
0 
2.168404344971009e-19 
0 
0 
0.05848868767153703 
2.168404344971009e-19 
0 
0 
0.001330667749984980 
2.168404344971009e-19 
-0.06993379617019334 
2.168404344971009e-19 
-0.004019680916874942 
0 
0.01232921747341040 
0 
0 
0 
-0.001184829428292226 
-0.04181268998360115 
0.01907771644088580 
0 
0 
-0.04118810419160567 
0 
0 
0 
0.01704712472154573 
0 
2.168404344971009e-19 
2.168404344971009e-19 
2.168404344971009e-19 
0.02381730672144091 
0 
0 
2.168404344971009e-19 
0 
0 
0 
0 
-0.008171616122949308 
0 
2.168404344971009e-19 
0 
-0.01147209694921757 
0 
-0.01572111373308113 
0 
2.168404344971009e-19 
2.168404344971009e-19 
2.168404344971009e-19 
0 
0 
2.168404344971009e-19 
2.168404344971009e-19 
0 
0.004101781389301272 
-0.02093900356383697 
0 
0.04671808636900302 
0.01907771644088580 
0 
0 
0.004596994274948034 
0 
0.02297045833076281 
0.05274988573764493 
0 
0 
-0.006219408102683786 
0 
0 
0.01333220549388348 
-0.03165536826336848 
0.01492347009612181 
0 
0 
-0.008065730951218758 
-0.004775294447679708 
1.084202172485504e-19 
0 
0 
0 
1.084202172485504e-19 
0 
0 
0 
0 
0 
0 
0 
0 
0 
0 
0.06849313660776897 
0 
0 
0 
-0.006110515917542091 
0 
0 
-0.007693090080992171 
0 
-0.008753089783670486 
1.084202172485504e-19 
0 
0 
-0.005645167542519849 
0 
-0.03174836713464132 
0 
0.01092831884582923 
0 
0 
0.1146808517055948 
0 
0 
0 
0 
-0.001948790186316807 
0.01333220549388348 
0 
0.01492347009612181 
0 
0 
0 
0 
0 
0 
0 
0 
0.005100679095424369 
0.005100679095424370 
0.009830045276772757 
0.005100679095424370 
0.005100679095424370 
0.005100679095424370 
0.005100679095424370 
0.005100679095424369 
0.005100679095424369 
0.005100679095424370 
0.005100679095424370 
-0.01478539490534764 
0.005100679095424370 
0.005100679095424370 
0.005100679095424369 
-0.03103877433812148 
0.005100679095424369 
0.005100679095424369 
0.005100679095424369 
0.005100679095424369 
0.005100679095424370 
0.005100679095424369 
0.006231008637287275 
0.005100679095424369 
0.009739496349903086 
0.005100679095424370 
0.005100679095424370 
0.005100679095424370 
0.005100679095424369 
0.005100679095424372 
0.001496635782645866 
0.005100679095424369 
0.005100679095424370 
0.005100679095424370 
-0.01370469108926840 
0.005100679095424369 
0.005100679095424372 
-0.01140852062262838 
0.005100679095424370 
0.009830045276772757 
0.009830045276772757 
0.005100679095424369 
0.005100679095424369 
0.005100679095424370 
0.005100679095424370 
-0.01478539490534764 
0.005100679095424369 
0.02962581545684756 
0.005100679095424369 
0.005100679095424370 
-0.01478539490534764 
0.005100679095424370 
-0.008055155527616592 
0.005100679095424369 
0.02968299214410634 
0.005100679095424370 
0.005100679095424369 
0.005100679095424370 
-0.01140852062262838 
0.005100679095424370 
0.005100679095424369 
0.005100679095424370 
0.009830045276772757 
0.005100679095424370 
0.005100679095424372 
0.005100679095424370 
0.005100679095424369 
0.005100679095424370 
0.005100679095424370 
-0.02714680360546347 
0.005100679095424369 
-0.002964213281630683 
0.005100679095424370 
0.03978922084021639 
-0.01478539490534764 
0.005100679095424370 
0.005100679095424370 
0.005100679095424369 
-0.01370469108926840 
0.005100679095424370 
0.005100679095424372 
-0.01140852062262838 
0.005100679095424369 
0.005100679095424370 
0.005100679095424369 
0.005100679095424370 
-0.01140852062262838 
0.005100679095424369 
0.005100679095424370 
0.005100679095424370 
-0.02714680360546347 
0.005100679095424370 
0.005100679095424369 
0.005100679095424369 
0.005100679095424369 
0.005100679095424369 
0.005100679095424369 
0.005100679095424369 
0.005100679095424369 
0.005100679095424370 
0 
0 
0 
0.02749468436470984 
4.336808689942018e-19 
0 
0 
0 
4.336808689942018e-19 
0.005878966967838614 
0.03370951426770912 
0 
0 
0.01622537622287625 
0 
0 
0.03370951426770912 
0 
0.01622537622287625 
0.01736769142504410 
0 
0 
0 
0 
0 
4.336808689942018e-19 
0 
0 
0 
0 
0.03370951426770912 
0 
0.03370951426770912 
4.336808689942018e-19 
0 
-0.001167881965178262 
4.336808689942018e-19 
0 
0 
-0.003616196210919026 
4.336808689942018e-19 
0 
0 
0.006567145580109044 
0 
0 
0 
0 
0 
0.006567145580109044 
0 
0 
0 
0 
0.003961619291855734 
-0.001647958082307261 
0 
0 
0.009282255756421328 
-0.02052533511596800 
0 
-0.009226221136229690 
0 
0 
0 
0 
0.006567145580109044 
0 
0.006567145580109044 
0 
0 
0 
0 
0 
0 
0.006567145580109044 
0.02130866145106091 
0 
0 
0 
0 
0 
0.006567145580109044 
-0.03289121154820626 
0 
0 
0 
0 
0 
0 
-0.05333222400806312 
0 
0 
0 
0 
0 
0 
0 
0 
0 
0 
0.02786862052573754 
0 
0 
1.626303258728257e-19 
-0.01089866895112856 
0 
0 
0 
0 
0 
0 
0 
0 
-0.02690534174254053 
0 
1.626303258728257e-19 
0 
0 
0 
0 
1.626303258728257e-19 
0 
0 
0 
0 
0 
-0.01134814596125310 
0 
0 
0 
0 
0 
0 
0 
-0.02383562766170240 
0 
0.01690180598410106 
1.626303258728257e-19 
0 
-0.01134814596125310 
0.003376874282719318 
0 
1.301042606982605e-18 
-0.002104225527194695 
0 
0 
0 
0 
0 
0 
-0.01134814596125310 
0 
0 
0 
0 
0 
-0.007197659036016510 
0 
0 
0 
0 
0 
0 
0.006327535961233915 
0 
0 
0 
0 
0 
-0.003327130150656808 
0 
0.006309676576759872 
0 
0 
0 
0 
0 
0 
0 
0 
-0.004926271814634610 
0 
0.04029671868160854 
0 
0 
0 
0 
0 
0 
0 
0 
0 
0.002557516418434970 
0 
0.006327535961233915 
0 
0 
-0.03028175791399905 
0 
0 
0 
0 
0 
-0.01089866895112856 
0 
0 
0 
0 
-0.002416500923254216 
0 
0 
-0.004926271814634610 
0.007335628439532661 
0 
0 
0 
0 
1.626303258728257e-19 
-0.01089866895112856 
0 
0 
-0.07305056399439305 
0 
1.626303258728257e-19 
0 
0 
0 
0 
0 
0 
0.005756666908679901 
0 
0 
1.626303258728257e-19 
1.626303258728257e-19 
0.007335628439532661 
0 
0 
0 
0 
0 
0 
-0.02626199565472783 
0 
-0.007197659036016510 
0 
0 
0 
0 
-0.007197659036016510 
0 
0 
0 
0 
0 
-0.01456609035390371 
-0.01089866895112856 
1.626303258728257e-19 
-0.01134814596125310 
-0.007498616197959145 
0.007335628439532661 
0 
0 
0.003376874282719318 
0 
0 
0 
0 
0 
0 
0 
0 
0 
-0.004926271814634610 
0 
0 
1.626303258728257e-19 
0 
1.626303258728257e-19 
0.007335628439532661 
0 
0 
0 
0 
0 
-0.01389524001403326 
0 
0.04029671868160854 
0 
0.003376874282719318 
0 
0.002091673735059668 
0 
0 
0 
0.003807933043406668 
-0.007498616197959145 
0 
0 
0 
-0.01389524001403326 
0 
0 
0 
0 
-0.01134814596125310 
0.02786862052573754 
0.003376874282719318 
0 
0 
-0.02126490659610318 
0 
0 
0 
0 
0 
0 
0.009774886722930136 
0 
0 
-0.002104225527194695 
0 
0 
0 
0 
0 
0 
0.006309676576759872 
-0.004926271814634610 
-0.002104225527194695 
0 
0 
0 
0 
0 
0 
0 
0 
1.626303258728257e-19 
-0.007197659036016510 
0 
0 
0 
0 
0 
0 
0 
1.626303258728257e-19 
0 
0 
-0.001647958082307261 
-0.001647958082307261 
-0.02132033436883152 
-0.02056406837087028 
0 
0 
0 
0 
0 
0 
0 
0 
-0.004794280527531252 
0 
0 
0 
0 
0 
0.001618561777686312 
0 
0 
0 
0 
0 
0 
0 
0 
0 
0 
0 
0 
0 
0 
0 
-0.001647958082307261 
0 
0 
0 
0 
0 
0 
0 
0 
0 
0 
0 
-0.001647958082307261 
0 
-0.001647958082307261 
0 
0 
0 
-0.004937942903300789 
0 
0 
0.03943138293955639 
0 
0.03943138293955638 
0 
0 
0 
0 
0 
0.004399997689100594 
0 
0 
0 
0 
-0.02472779985451962 
-0.02132033436883152 
0 
0 
0 
0 
0 
0 
-0.001647958082307261 
0 
0 
0 
0.001618561777686312 
0 
0 
0 
-0.02056406837087028 
0 
0 
0 
0 
0 
0.003466147373057646 
0 
0 
0 
0 
-0.001647958082307261 
0 
0.05299780069632996 
0 
0 
0.001618561777686312 
0 
0 
0 
0 
0 
-0.001647958082307261 
0 
0 
0 
0 
0.001618561777686312 
0 
0 
-0.001647958082307261 
-0.001647958082307261 
0 
0 
-0.02718743649628920 
0 
0 
0 
0 
0 
0 
-0.004794280527531252 
0 
0 
0 
-0.04148074282126955 
-0.02277460800736600 
-0.08470057110571808 
-0.02277460800736600 
0 
0.04982089429018536 
-0.01240156131960016 
0.004881068020454683 
0.0006565568448526436 
-0.004054634480700221 
-0.01240156131960015 
0.004881068020454683 
0.002909160888259804 
-0.01240156131960016 
0.01263461132233089 
-0.01240156131960016 
0.009081924485093446 
0.004881068020454681 
0.008223948680144155 
-0.04757045077622064 
0 
0 
0.0002181718962356713 
-0.01240156131960016 
-0.02076527686439205 
-0.04757045077622064 
0 
-0.03245184817081763 
0.03852806872753052 
0 
-0.01240156131960015 
-0.04948650646276288 
-0.01042995855222514 
-0.03412564441926018 
0 
0.06183205141099911 
0.008620107661894928 
-0.01240156131960016 
-0.01437346845179503 
0.0006565568448526436 
0.0006565568448526436 
-0.03063092583951806 
0.004881068020454683 
0.004881068020454681 
0 
-0.03245184817081763 
0.008223948680144155 
-4.201283418381330e-19 
0 
-0.04274736527822315 
0.02586718072427535 
0.04719161039375832 
0 
-0.01240156131960015 
0 
0.004881068020454683 
0.03073533613088956 
-0.006884984548753663 
-0.01240156131960016 
0.002590544213822862 
-0.01240156131960016 
-0.05808144164640770 
0.004881068020454681 
-0.01144308673191304 
0 
-0.01240156131960016 
-0.01928654586835386 
0 
-0.01240156131960015 
0 
0.0002066026611306652 
-0.006884984548753663 
0 
-0.01240156131960016 
0 
0.0006565568448526436 
-0.009755437863231377 
-0.07021992744106004 
-0.03095988459396125 
-0.03363473224953791 
-0.01240156131960015 
-0.01240156131960016 
-0.04919562382321200 
-0.01240156131960016 
0.004881068020454681 
-0.01437346845179503 
-0.01027175797807445 
-0.01240156131960016 
-0.01240156131960016 
0 
0.004881068020454681 
0.004881068020454681 
-0.006403600923097160 
-0.02423558671401276 
-0.01437346845179503 
0.008223948680144155 
0 
-0.01240156131960015 
-0.01240156131960015 
-0.01928654586835386 
0.004881068020454681 
-0.03363473224953791 
0 
0.004881068020454683 
-0.03245184817081763 
0.006103730904078281 
0.01314817565407350 
-0.04757045077622064 
-0.005655858176514356 
0 
-0.04757045077622064 
0 
-0.01928654586835386 
-0.01240156131960016 
-0.01240156131960015 
-0.04603017749420069 
-0.01490863343583361 
-0.03363473224953791 
-0.06113798282698466 
-0.01437346845179503 
0 
-0.01968003042507001 
-0.04757045077622064 
-0.03136133170097229 
0 
-0.01240156131960016 
0.004881068020454683 
0.004881068020454681 
0.01638883634304321 
0.005828467611329493 
-0.01240156131960015 
-0.01240156131960016 
-0.05148311824969356 
0.001793467367914531 
-0.01240156131960016 
-0.01240156131960016 
0.05921729404212855 
0.004881068020454681 
-0.01240156131960016 
-0.01240156131960016 
0.004881068020454681 
0.004881068020454681 
-0.01234221370368287 
-0.005655858176514355 
-0.04757045077622064 
-0.01437346845179503 
-0.005655858176514356 
0.01084454256833886 
-0.01240156131960016 
-0.0008347353900968304 
0.01314817565407350 
-0.04757045077622064 
0 
0 
0 
-0.01240156131960016 
0.01268405055566831 
-0.009759924517749187 
0 
-0.005655858176514356 
0.01314817565407350 
0 
0.004881068020454681 
0.006755217617421056 
-0.009755437863231377 
-0.006884984548753666 
-0.01240156131960016 
-0.01240156131960015 
0.004881068020454681 
0.008620107661894928 
-0.01240156131960016 
-0.01240156131960015 
0.02723425108596347 
-0.009948722856880511 
-0.007690064668893838 
-0.03817880970175873 
-0.03962696228555535 
-0.01240156131960016 
0.01076840391139127 
0.02255998361113533 
0.02989820160281350 
0.009876106044456219 
0.01149830399035169 
-0.01240156131960016 
-0.03326956939623581 
0.04240401305711959 
-0.01240156131960016 
-0.05220751751569080 
-0.01240156131960016 
0.01983233634252717 
-0.09385247060009977 
0.02862443777173287 
0.01076840391139127 
0.02852533199616289 
0.03849248550680473 
0.0005738054899453171 
0.02367513809472380 
0.0002076828897367636 
0.02852533199616289 
0.02862443777173287 
0.002062021188490453 
0.02331610936709870 
-0.03000413403489052 
0.03194968115794656 
0.02862443777173287 
0.009876106044456219 
-0.0004282345345827896 
-0.01240156131960016 
0.02989820160281350 
0.01076840391139127 
-0.06015321825365363 
0.01076840391139127 
0.01761773100387483 
0.01149830399035169 
-0.002508997301841269 
-0.01761248632413271 
0.004423715906265870 
-0.01240156131960016 
0.0005738054899453171 
-0.01240156131960016 
0.01761773100387483 
-0.01240156131960016 
0.01761773100387483 
-0.01240156131960016 
0.01149830399035169 
-0.01240156131960016 
0.03704175838404324 
0.01149830399035169 
0.01761773100387483 
0.01761773100387483 
-0.02807036721503941 
-0.01240156131960016 
-0.01240156131960016 
-0.04530860450598606 
-0.01066441984563086 
-0.01240156131960016 
0.01076840391139127 
-0.03035288639638069 
0.1044380048324964 
-0.01240156131960016 
0.02862443777173287 
-0.01135154161460886 
0.004423715906265870 
0.02862443777173287 
-0.04366715618425769 
0.03076181175694440 
-0.004809672109954105 
-0.05743717200976759 
-0.004809672109954105 
0.001392410436075348 
-0.02154399935157001 
0.02132581859637233 
-0.02613736066967271 
-0.02613736066967271 
-0.004809672109954105 
-0.004809672109954105 
-0.01925237612091905 
-0.004809672109954105 
-0.004809672109954105 
-0.004809672109954105 
-0.03389930863613606 
-0.09095688738918949 
-0.004809672109954105 
0.003210785864163424 
-0.02613736066967271 
-0.004809672109954105 
-0.02613736066967271 
-0.01318687458860444 
-0.01318687458860444 
0.006075422229754221 
-0.004809672109954105 
-0.004809672109954105 
-0.004809672109954105 
0.03196790696465425 
-0.004809672109954105 
0.0001249340975012048 
-0.004809672109954105 
-0.05810986019522268 
-0.02613736066967271 
-0.02613736066967271 
0.002618247855598201 
-0.02099584826976539 
-0.01169465665870774 
-0.01925237612091905 
0.003210785864163424 
-0.02613736066967271 
-0.004809672109954105 
-0.01925237612091905 
-0.01318687458860444 
-0.03657778754598803 
-0.003880378001109807 
-0.004809672109954105 
-0.01318687458860444 
-0.003880378001109807 
-0.004809672109954105 
-0.004809672109954105 
-0.01318687458860444 
-0.02613736066967271 
-0.004809672109954105 
-0.05810986019522268 
0.01064933011658353 
-0.004809672109954105 
-0.01194539416806517 
-0.004809672109954105 
0.02013427878637374 
-0.01425680225699603 
0.02648402813494433 
0.04138448156352017 
0.01706160483466610 
-0.03389930863613606 
-0.004809672109954105 
0.06364609068267502 
-0.004809672109954105 
-0.04366715618425769 
0.03812149352902759 
-0.01925237612091905 
0.02132581859637233 
-0.004809672109954105 
0.006981602047439721 
-0.01925237612091905 
-0.004809672109954105 
-0.004809672109954105 
-0.004809672109954105 
-0.004809672109954105 
-0.01318687458860444 
-0.01169465665870774 
-0.004809672109954105 
-0.004809672109954105 
-0.01318687458860444 
-0.02199065711638288 
-0.01425680225699603 
-0.004809672109954105 
0.1056829725566100 
0.02569376518181905 
-0.01209839861515643 
-0.02613736066967271 
-0.004809672109954105 
0.04235394875342347 
-0.004809672109954105 
-0.04609517744739952 
-0.01925237612091905 
-0.02613736066967271 
-0.02456745677785971 
-0.004809672109954105 
-0.01318687458860444 
-0.02613736066967271 
-0.004809672109954105 
-0.004809672109954105 
-0.004809672109954105 
-0.004809672109954105 
-0.01089525135795334 
0.04138448156352017 
-0.01973875229840205 
-0.01115436011507947 
0.009029324673667854 
-0.01318687458860444 
-0.01444270401096498 
0.02447526618301502 
-0.01444270401096498 
-0.01444270401096498 
-0.01444270401096498 
-0.01444270401096498 
-0.002253018188553373 
-0.01975778466790560 
0.01154202667218931 
0.01154202667218931 
-0.0002735465600531140 
-0.01975778466790560 
-0.06504232627875926 
-0.01444270401096498 
-0.003731398832450537 
-0.003731398832450537 
-0.003731398832450537 
0 
-0.006884984548753664 
-0.003731398832450537 
-0.006884984548753664 
-0.01177348091396091 
-0.006884984548753664 
-0.006884984548753664 
-0.09317412175964598 
-0.006884984548753663 
-0.006884984548753664 
-0.007751795393373140 
-0.006884984548753664 
-0.006884984548753663 
-0.006884984548753664 
-0.006884984548753664 
-0.08619546653627318 
-0.006884984548753664 
-0.003731398832450537 
-0.006884984548753664 
0 
-0.01427054571875524 
0.005334982897247317 
-0.01557807570073788 
-0.006884984548753664 
-0.003731398832450542 
-0.006884984548753664 
-0.06874882907814930 
-0.006884984548753664 
-0.003731398832450537 
-0.02780598836342089 
-0.003731398832450537 
-0.003731398832450537 
0 
-0.003731398832450537 
-0.006884984548753664 
-0.04593654741298679 
-0.006884984548753664 
-0.006884984548753664 
-0.006884984548753664 
0.01093880902558982 
-0.006884984548753663 
-0.006884984548753663 
-0.006884984548753663 
-0.006884984548753663 
-0.03067550031638112 
-0.006884984548753664 
-0.006884984548753663 
-0.006884984548753664 
-0.01862529305102265 
-0.006884984548753664 
-0.006884984548753664 
-0.01858662588004398 
-0.006884984548753663 
-0.006884984548753664 
-0.005292478004138415 
0.01524210931171940 
0.07283275927332725 
0.01215625754505718 
0.01524210931171939 
-0.03528414045577252 
0.01524210931171939 
0.01524210931171939 
0.01524210931171939 
0.01524210931171939 
0.01524210931171939 
0.01524210931171939 
0.01215625754505718 
-0.005292478004138415 
0.01524210931171939 
0.01524210931171939 
0.06493746247119361 
0.01524210931171939 
0.01524210931171939 
0.002837390357406097 
0.01524210931171939 
0.01524210931171939 
0.01858655962294374 
0.01524210931171939 
0.01524210931171939 
0.01524210931171939 
0.002837390357406097 
0.01524210931171939 
0.01524210931171939 
0.01524210931171939 
0.01524210931171939 
0.006701116622986832 
-0.01034226064795262 
0.01524210931171939 
0.01524210931171939 
0.01524210931171939 
0.01524210931171939 
0.01524210931171939 
0.01524210931171939 
0.03009915175793622 
0.01215625754505718 
0.01524210931171939 
0.01524210931171939 
0.01419844497521543 
0.01524210931171939 
0.01524210931171939 
0.01858655962294374 
0.01524210931171939 
0.01524210931171939 
0.01524210931171939 
0.01524210931171939 
0.01524210931171939 
0.01524210931171939 
0.01524210931171939 
0.01416091797111905 
0.01858655962294374 
0.04805623238833203 
0.1044464120641578 
0.01524210931171939 
0.01524210931171939 
0.01524210931171939 
0.01524210931171939 
0.01524210931171939 
0.01524210931171939 
0.03776446448605999 
-0.005095610526722741 
0.01524210931171939 
0.01215625754505718 
0.01524210931171939 
-0.01126488180367003 
0.01524210931171939 
0.01215625754505718 
0.02960560602622966 
0.01420057576943302 
-0.005292478004138415 
0.02480100830850917 
-0.01757480383775186 
0.06352295994962556 
-0.005095610526722741 
0.01524210931171939 
0.01524210931171939 
0.01524210931171939 
0.01524210931171939 
0.01524210931171939 
0.01215625754505718 
0.01215625754505718 
0.01524210931171939 
0.05858793337161337 
0.01524210931171939 
0.01524210931171939 
-0.01603477146173697 
0.01524210931171939 
0.01524210931171939 
0.01524210931171939 
0.01524210931171939 
0.01524210931171939 
0.01524210931171939 
0.01524210931171939 
0.01524210931171939 
-0.003758987422543902 
0.02336388284588972 
0.01524210931171939 
0.01524210931171939 
-0.002178176203961408 
0.07841797684431641 
0.01524210931171939 
0.01524210931171939 
0.0002851453632647820 
-0.006344688005125387 
0 
0.0002851453632647820 
0.02912105189037868 
0 
-0.006344688005125387 
-0.006344688005125387 
-0.007715984978456845 
-0.006344688005125387 
-0.006344688005125387 
-0.005845719257274207 
-0.006344688005125387 
-0.006344688005125387 
-0.006344688005125387 
-0.007715984978456845 
0.0002851453632647820 
0.02160491696371992 
0.007162342902897076 
-0.006344688005125387 
-0.006344688005125387 
-0.006344688005125387 
-0.006344688005125387 
-0.006344688005125387 
-0.02610035402223782 
-0.006344688005125387 
0.02963709079815811 
-0.006344688005125387 
-0.02006828365585855 
-0.005414772531434559 
-0.006344688005125387 
-0.006344688005125387 
-0.009052850597347239 
0 
-0.02112441266608142 
-0.006344688005125387 
-0.01191031683221161 
-0.03513301900315973 
-0.006344688005125387 
-0.002230952457511566 
-0.002230952457511566 
-0.006344688005125387 
0 
0 
-0.006344688005125387 
-0.006344688005125387 
-0.006344688005125387 
-0.002230952457511566 
-0.008590447032838813 
0.02160491696371992 
-0.006344688005125387 
-0.006344688005125387 
-0.006344688005125387 
0.02811332294437039 
-0.006344688005125387 
0 
-0.006344688005125387 
-0.002230952457511566 
-4.336808689942018e-19 
-0.006344688005125387 
-0.009052850597347239 
0 
-0.006344688005125387 
-0.01191031683221161 
0.01137341576012989 
0 
-0.006344688005125387 
-0.006344688005125387 
-0.006344688005125387 
0.003990561784960962 
-0.006344688005125387 
0.0002851453632647820 
0 
-0.02671244962582791 
0 
0 
-0.01191031683221161 
-0.006344688005125387 
-0.006344688005125387 
-0.006344688005125387 
-0.006344688005125387 
-0.006344688005125387 
-0.006344688005125387 
-0.006344688005125387 
-0.006344688005125387 
-0.004219805251583388 
-0.006344688005125387 
0 
-0.006344688005125387 
-0.006344688005125387 
0.02811332294437039 
-0.007715984978456845 
-0.006344688005125387 
-0.006344688005125387 
8.673617379884035e-19 
-0.03207609484601404 
0.03311493631470572 
-0.002230952457511566 
-0.006344688005125387 
0.05357124942102335 
-0.008590447032838813 
-0.006344688005125387 
-0.002230952457511566 
-0.006344688005125387 
-0.006344688005125387 
0.03887577201528555 
-0.006344688005125387 
-0.006344688005125387 
-0.006344688005125387 
-0.006344688005125387 
-0.006344688005125387 
-0.006344688005125387 
0.03484242494440681 
-0.006344688005125387 
-0.006344688005125387 
-0.01013248590171108 
-0.01038748457609343 
0 
0.05154113497893058 
-0.006344688005125387 
-0.02006828365585855 
0 
0 
-0.006344688005125387 
-0.006344688005125387 
-0.07499133913640343 
0.0002851453632647820 
-0.006344688005125387 
-0.04626141170860046 
-0.006344688005125387 
-0.007715984978456845 
-0.006344688005125387 
-0.006344688005125389 
-0.009052850597347239 
-0.006344688005125387 
0 
-0.006344688005125387 
-0.006344688005125387 
-0.006344688005125387 
-0.006344688005125387 
-0.006344688005125387 
-0.02006828365585855 
-0.006344688005125387 
-0.006344688005125387 
-0.006344688005125387 
-0.006344688005125389 
-0.04065191342064362 
0 
-0.006344688005125387 
0 
-0.0003520838975239500 
-0.006344688005125387 
-0.006344688005125389 
8.673617379884035e-19 
-0.01191031683221161 
-0.02477877598918762 
0.009025972698164977 
-0.006344688005125387 
0 
-0.006344688005125387 
0 
0 
0 
-0.006344688005125387 
0 
0 
-0.006344688005125387 
0 
0 
-0.006344688005125387 
0 
0 
0 
0 
-0.006344688005125387 
-0.006344688005125387 
-0.006344688005125387 
-0.006344688005125387 
-0.01912647411788740 
0 
-0.03129981134009502 
0 
-0.03129981134009502 
-0.006344688005125387 
0 
-0.006344688005125387 
-0.006344688005125387 
-0.006344688005125387 
0 
0.03352285160467116 
0 
-0.03147099161886038 
-0.006344688005125387 
-0.006344688005125387 
0.02598473068315438 
-0.005315080656940726 
-0.006344688005125387 
-0.006344688005125387 
0 
0 
-0.006344688005125387 
-0.006344688005125387 
0.1090986234459154 
-0.002770590336579336 
-0.006344688005125387 
-0.006344688005125387 
-0.006344688005125387 
0 
-0.006344688005125387 
-0.006053688311418589 
0 
-0.006344688005125387 
0 
0 
-0.006344688005125387 
-0.005315080656940726 
0 
-0.006344688005125387 
-0.006344688005125387 
0 
-0.006344688005125387 
0 
-0.006344688005125387 
0.04265692458004222 
0.01061248666610917 
0.01969261565713536 
-0.0006485936287663936 
0.01970874725917791 
0.04316504902041520 
0.01970874725917791 
0.03933492126314425 
0.01970874725917791 
0.01061248666610917 
0.007495755757209859 
-0.01140666142751910 
0.05327080838462327 
-0.01243270049297555 
-0.01140666142751910 
-0.007614341355804969 
0.01970874725917791 
0.04338422628043087 
0.04973112661512915 
-0.001610901125457045 
0.01969261565713536 
-0.01140666142751910 
0.02109088139547955 
0.01970874725917791 
0.01970874725917791 
0.01919786373382675 
0.01061248666610917 
0.01970874725917791 
-0.07944541639951600 
-0.0006485936287663936 
0.03953832361962935 
0.01061248666610917 
0.0006903280025716585 
0.04322493886253348 
0.07146418289417969 
0.01970874725917791 
-0.02056583469936826 
0.01970874725917791 
-0.1061438952146277 
0.01970874725917791 
0.01477282726896232 
0.01970874725917791 
0.01969261565713536 
-0.01243270049297555 
-0.007614341355804969 
0.01061248666610917 
0.01970874725917791 
0.07573545219917746 
0.01970874725917791 
0.04100126580503304 
-0.007131430230500765 
0.01970874725917791 
0.01970874725917791 
0.01912388187558402 
0.01970874725917791 
0.03361117663039463 
0.003920706232716929 
-0.007614341355804969 
0.01009148427048702 
0.01504088239285936 
0.01839187970376359 
0.04137238407154455 
0.04265692458004222 
0.04477677815498990 
0.03953832361962935 
-0.0006485936287663936 
-0.0006485936287663936 
-0.02056583469936826 
-0.007614341355804969 
-0.001950335257356258 
0.01970874725917791 
0.01009148427048702 
0.01970874725917791 
-0.009306803312426419 
0.01061248666610917 
0.01970874725917791 
-0.02539462123803959 
0.01970874725917791 
0.06482029796533598 
-0.01214161444713409 
0.05090762916381705 
0.01970874725917791 
-0.009207481107802595 
-0.009145229369208597 
-0.01720108726571980 
0.06759583045417711 
-0.02801068066461272 
0.06595309252751834 
-0.01345030614033471 
0.06456180110041174 
-0.01345030614033471 
-0.0005614297125829306 
-0.01879076886497372 
0.01410377188000884 
-0.01345030614033471 
-0.01345030614033471 
-0.01345030614033471 
0.01072863647557473 
0.01649472640164788 
0.009835556734853200 
0.004896168572564071 
-0.01345030614033471 
-0.01345030614033471 
-0.03115328692711336 
-0.01345030614033471 
-0.02778446887725791 
0.003622407416211654 
-0.01345030614033471 
-0.01345030614033471 
-0.01345030614033471 
-0.01228644831096223 
-0.01345030614033471 
-0.01755170332730835 
-0.01345030614033471 
0.007917699565748823 
-0.01345030614033471 
-0.05058707801280000 
-0.02807049218574780 
-0.01345030614033471 
-0.01345030614033471 
-0.01265388871098339 
-0.01345030614033471 
-0.01345030614033471 
-0.01345030614033471 
0.0008411246210193466 
-0.01345030614033471 
-0.03343594812506542 
-0.01345030614033471 
-0.01107364950190223 
-0.03961958814252222 
-0.01228644831096223 
-0.01345030614033471 
-0.009207481107802595 
-0.04229923189407221 
-0.009207481107802595 
-0.01482969859948442 
-0.009207481107802595 
-0.01345030614033471 
-0.001005062843701627 
-0.01345030614033471 
-0.0007224755230193961 
-0.01345030614033471 
-0.01345030614033471 
-0.01345030614033471 
-0.03115328692711336 
-0.02413765371863415 
-0.01345030614033471 
0.04665602707259691 
-0.01345030614033471 
-0.01345030614033471 
-0.04508322420145175 
-0.01345030614033471 
-0.01345030614033471 
-0.01345030614033471 
-0.007840165116465750 
-0.009207481107802595 
-0.01345030614033471 
-0.01345030614033471 
-0.01345030614033471 
-0.01345030614033471 
0.06456180110041174 
0.04278469358059910 
-0.01345030614033471 
-0.01345030614033471 
-0.01345030614033471 
-0.01345030614033471 
-0.01345030614033471 
-0.02370013939962832 
-0.01345030614033471 
-0.01345030614033471 
-0.01345030614033471 
-0.01345030614033471 
-0.01345030614033471 
-0.01879076886497372 
-0.01345030614033471 
-0.01345030614033471 
0.0008411246210193466 
-0.009207481107802595 
-0.01345030614033471 
0.01685227298043375 
-0.01345030614033471 
-0.03115328692711336 
-0.01345030614033471 
-0.01345030614033471 
0.0008411246210193466 
-0.03290191500201363 
-0.05727964394760449 
-0.01345030614033471 
-0.05246021800135801 
-0.01345030614033471 
-0.04715850403106084 
-0.02866052295003967 
0.01578935788320187 
0.003622407416211654 
-0.01909547368285451 
-0.007539776151338102 
-0.01345030614033471 
-0.01049889615770751 
-0.01049889615770751 
-0.01049889615770751 
-0.01049889615770751 
0.0003264390267373185 
0.0003264390267373185 
0.0003264390267373185 
-0.01049889615770751 
-0.01049889615770751 
-0.01049889615770751 
-0.03980512757995608 
-0.01049889615770751 
-0.005698468093769440 
0.0003264390267373185 
0.0003264390267373185 
0.03328118395409836 
0.0003264390267373185 
-0.01049889615770751 
0.0003264390267373185 
0.0003264390267373185 
0.01618641435487226 
-0.003096146241623626 
0.0006877725465479108 
-0.007254303662353741 
0.0003264390267373185 
-0.01240371275627252 
0.0006877725465479108 
-0.01049889615770751 
-0.003096146241623626 
-0.03907638013977256 
0.03252981326637383 
-0.03907638013977256 
-0.03907638013977256 
-0.003096146241623626 
-0.01049889615770751 
0.0003264390267373185 
-0.01049889615770751 
-0.03907638013977256 
-0.004386357733433200 
-0.01049889615770751 
0.03089664713510786 
-0.01049889615770751 
-0.01049889615770751 
-0.01049889615770751 
-0.01049889615770751 
-0.01882458756790307 
-0.03907638013977256 
-0.01049889615770751 
-0.01049889615770751 
-0.007893259210760504 
-0.01049889615770751 
-0.01049889615770751 
-0.01049889615770751 
0.0003264390267373185 
0.01486135524970617 
0.04170043050885599 
-0.003096146241623626 
-0.01049889615770751 
-0.01049889615770751 
-0.01049889615770751 
0.0006877725465479108 
0.0003264390267373185 
-0.01906051260999732 
0.001570230328280852 
-0.03358427170117514 
-0.01049889615770751 
0.01440128086220974 
-0.03815127754803105 
0.0006877725465479108 
0.0003264390267373185 
-0.03907638013977256 
-0.05334701163789768 
0.01440128086220974 
-0.02203809596472086 
-0.01049889615770751 
-0.01049889615770751 
-0.01049889615770751 
-0.03907638013977256 
-0.03907638013977256 
0.01440128086220974 
0.004374188307983118 
-0.01049889615770751 
0.0003264390267373185 
-0.02014632859849916 
-0.03907638013977256 
-0.03907638013977256 
-0.02309584836126288 
0.04917645423997689 
0.04569773277839775 
-0.004386357733433200 
-0.07468183222191050 
0.004374188307983118 
-0.01049889615770751 
-0.03907638013977255 
0.0006877725465479108 
-0.01049889615770751 
-0.01049889615770751 
-0.01049889615770751 
0.008398485587877818 
0.07336445526306185 
-0.01331174296101646 
-0.01414769289796493 
-0.002395726262477827 
-0.03015854691172250 
-0.01342364536563224 
0.006964590893899773 
-0.01704566449162163 
-0.01342364536563224 
-0.01342364536563224 
-0.02621760047369668 
-0.002395726262477827 
-0.002395726262477827 
-0.002395726262477827 
0.005439856904874774 
0.01015265366504526 
0.03581449725232652 
-0.01342364536563224 
-0.01414769289796493 
-0.002395726262477827 
0.01017808272791153 
-0.02694164800602935 
-0.003635837818617587 
-0.002395726262477827 
0.005439856904874774 
0.02929207513042499 
-0.02694164800602935 
0.01893220205791147 
0.009012182231302103 
-0.01342364536563224 
-0.01342364536563224 
0.005237926068711525 
0.01893220205791147 
-0.01342364536563224 
-0.03036952101525294 
0.03073985530582734 
-0.002395726262477827 
-0.01342364536563224 
-0.002395726262477827 
0.03615954109703980 
-0.01342364536563224 
-0.002395726262477827 
0.01871977607228291 
0.01015265366504526 
0.02098929642295190 
-0.003463037671362345 
0.04146209796968722 
0.04380073758736261 
-0.01342364536563224 
0.04123083903566891 
-0.01102299836531115 
-0.002395726262477827 
-0.002395726262477827 
-0.002395726262477827 
-0.002395726262477827 
-0.002395726262477827 
0.02422749550051793 
0.02422749550051793 
0.005439856904874774 
-0.01414769289796493 
-0.01342364536563224 
-0.02621760047369668 
-0.002395726262477827 
-0.01069202086606072 
0.01346257651670542 
-0.01342364536563224 
-0.02694164800602935 
-0.01342364536563224 
-0.02621760047369668 
-0.01342364536563224 
-0.002395726262477827 
-0.002395726262477827 
-0.01342364536563224 
-0.02801053034954497 
0.0006568577026161055 
0.02450187677041888 
0.01015265366504526 
0.04891400125834265 
0.01015265366504526 
0.01395233889050216 
-0.001735787028086935 
0.02736642895642573 
0.04576213057332524 
0.05914905448256050 
0.0004467045610901690 
0.01017808272791153 
-0.02694164800602935 
-0.01342364536563224 
-0.02621760047369668 
0.01094526721354051 
-0.02621760047369668 
0.01017808272791153 
-0.1088487269637745 
-0.01342364536563224 
-0.002395726262477827 
-0.01069202086606072 
-0.02694164800602935 
-0.02694164800602935 
-0.002395726262477827 
-0.01342364536563224 
-0.001180204049313123 
-0.01342364536563224 
-0.01342364536563224 
-0.01342364536563224 
-0.002395726262477827 
-0.002395726262477827 
-0.01069202086606072 
-0.02694164800602935 
0.04409248538975248 
0.01551747402078278 
-0.01342364536563224 
0.05815332376799352 
-0.06693258143172800 
-0.02621760047369668 
-0.01342364536563224 
0.03071913966446333 
-0.01550940125015124 
-0.01622825335765486 
-0.002395726262477827 
0.01017808272791153 
-0.01342364536563224 
0.04123083903566891 
-0.01342364536563224 
-0.01342364536563224 
-0.002395726262477827 
-0.002395726262477827 
0.01611416923595119 
-0.002395726262477827 
-0.01414769289796493 
-0.002395726262477827 
-0.01414769289796493 
-0.0005065699185617691 
-0.002395726262477827 
0.03666266435736812 
-0.02694164800602935 
-0.002395726262477827 
-0.002395726262477827 
0.002945887295709891 
-0.0007240475323326820 
-0.08628907073828189 
-0.0007240475323326811 
-0.0007240475323326820 
-0.04796979514366722 
-0.0007240475323326820 
-0.0007240475323326820 
-0.0007240475323326820 
-0.0007240475323326813 
-0.0007240475323326826 
0.01817841259391009 
-0.03650121101331348 
-0.01958091289880154 
0.09076629026446281 
0.002209908230697653 
0.01634513986493242 
-0.03003567210675723 
-0.006260280023926962 
-0.0007240475323326820 
-0.003707867930197695 
-0.0007240475323326820 
-0.0007240475323326820 
0.02064206477830020 
-0.0007240475323326820 
-0.003707867930197695 
-0.03226718789936002 
-0.0007240475323326820 
0.06215456643455528 
-0.0007240475323326820 
-0.002948565743069286 
-0.0007240475323326820 
-0.004006522487119983 
-0.0007240475323326811 
-0.0007240475323326820 
-0.02965124286825646 
-0.07445446545151917 
-0.05013922719374257 
-0.0007240475323326820 
0.001877150235709099 
0.0003934752019806333 
-0.0007240475323326820 
-0.01085124537194362 
-0.0007240475323326813 
-0.0007240475323326820 
-0.06802327823098542 
0.006166258936089865 
-0.02091678374488643 
-0.1053820143889615 
-0.0007240475323326820 
0.03002396228817906 
0.008043620348311187 
-0.0007240475323326811 
-0.0007240475323326820 
-0.0007240475323326820 
-0.0007240475323326820 
-0.02406330597519995 
-0.003889942643406489 
-0.003707867930197695 
0.008175891075141637 
-0.0007240475323326820 
-0.0007240475323326820 
-0.01684464023040965 
-0.09876708716907874 
0.0003934752019806333 
-0.01049120275351410 
-0.0007240475323326820 
-0.04929711478710738 
0.0003934752019806333 
-0.003707867930197693 
0.006166258936089865 
-0.0007240475323326811 
-0.0007240475323326820 
0.03124641902657886 
-0.02291897535761611 
-0.0007240475323326820 
-0.06261093052481795 
-0.003707867930197693 
-0.01281277081975436 
0.02835055414785153 
-0.02406330597519995 
0.01579052922633795 
0.01348549616101771 
0.005041789404257327 
-0.04757550372622994 
-0.0007240475323326820 
-0.0007240475323326820 
-0.0007240475323326820 
0.008613206735816410 
0.007602140705095341 
0.05201751494433424 
-0.0007240475323326820 
0.01297551681863911 
0.01175196663548710 
0.01175196663548710 
0.01175196663548710 
-0.03247820368195791 
0.01175196663548710 
0.01175196663548710 
0.01175196663548710 
0.01175196663548710 
0.01175196663548710 
0.01082559522478330 
0.04972451061511897 
0.01175196663548710 
0.01175196663548710 
0.01175196663548710 
0.01175196663548710 
0.01175196663548710 
0.01175196663548710 
0.01175196663548710 
0.01175196663548710 
0.01175196663548710 
0.005102814093573465 
0.01175196663548710 
0.01175196663548710 
0.01175196663548710 
0.01260683489956412 
0.08943136303363450 
0.01175196663548710 
0.01175196663548710 
0.01175196663548710 
0.01175196663548710 
0.01175196663548710 
0.01175196663548710 
0.01175196663548710 
0.01175196663548710 
0.01175196663548710 
0.01175196663548710 
0.01175196663548710 
0.01175196663548710 
0.01175196663548710 
0.01175196663548710 
0.01175196663548710 
0.01175196663548710 
-0.01279395510806440 
0.001215522213164701 
-0.01279395510806440 
-0.003863079147103360 
-0.01279395510806440 
-0.01279395510806440 
-0.01279395510806440 
-0.01279395510806440 
0.001215522213164697 
-0.01279395510806440 
-0.01279395510806440 
-0.01279395510806440 
-0.01279395510806440 
0.006840587741268571 
-0.01279395510806440 
0.001215522213164701 
-0.01279395510806440 
-0.01279395510806440 
-0.01279395510806440 
-0.01279395510806440 
-0.01279395510806440 
-0.01279395510806440 
-0.006208478396474652 
-0.01279395510806440 
-0.01279395510806440 
-0.01279395510806440 
-0.01279395510806440 
-0.01279395510806440 
-0.01279395510806440 
-0.01279395510806440 
0.01254837992752301 
-0.006045485977393726 
-0.01279395510806440 
-0.01237706585000424 
-0.01279395510806440 
-0.01279395510806440 
-0.01279395510806440 
-0.01279395510806440 
-0.01107327843773910 
-0.01279395510806440 
0.002574672646503430 
-0.01279395510806440 
-0.01279395510806440 
-0.01279395510806440 
-0.02088131978922810 
-0.006208478396474652 
0.001215522213164697 
-0.01279395510806440 
-0.01279395510806440 
-0.01279395510806440 
-0.007207064750120150 
-0.01279395510806440 
-0.01279395510806440 
-0.01279395510806440 
-0.01279395510806440 
-0.01279395510806440 
-0.01279395510806440 
-0.01279395510806440 
-0.01279395510806440 
-0.01279395510806440 
-0.01279395510806440 
-0.01279395510806440 
-0.01279395510806440 
-0.01279395510806440 
-0.01279395510806440 
-0.01279395510806440 
-0.01279395510806440 
-0.01279395510806440 
-0.01279395510806440 
-0.01279395510806440 
-0.01279395510806440 
-0.01279395510806440 
-0.01279395510806440 
0.07798890978912658 
0.01273538683740474 
0.003830013622836614 
-0.03999113256013907 
-0.01045419143919242 
-0.001416535603217071 
-0.001416535603217071 
-0.03999113256013907 
0.007168658553595275 
-0.03999113256013907 
-0.04167434136661281 
-0.009978051512755461 
-0.03729443187954669 
-0.02693322163588076 
-0.01045419143919242 
-0.01045419143919242 
-0.03174953226636516 
0 
0.006254768777114134 
-0.02191207434486953 
0.001165624730447323 
0.01796931279378979 
-0.01045419143919242 
-0.01953262022128012 
0 
-0.02191207434486953 
-0.001416535603217071 
0 
0.01832985421057230 
0.03285907450759352 
-0.03174953226636515 
-0.02707922081034820 
-0.01153724045055322 
-0.01045419143919242 
-0.01616006686797193 
-0.07690857627094697 
-0.01953262022128012 
-0.001416535603217071 
0.03109843013632007 
0 
-0.03999113256013907 
-0.03999113256013907 
-0.08298822462041909 
-0.01045419143919242 
0.01832985421057230 
-0.009978051512755461 
-0.01953262022128012 
-0.001416535603217071 
-0.08298822462041909 
-0.03999113256013907 
0.009378288836467989 
-0.01953262022128012 
0.01389409484328871 
-0.05146027721356831 
-0.0001112569626208422 
-0.05309801932986522 
-0.001416535603217071 
-0.03999113256013907 
-0.01616006686797193 
-0.01027735248848280 
-0.006446064359138902 
-0.03268863651807555 
0.009378288836467989 
-0.009978051512755461 
-0.01045419143919242 
0 
0.01925064781059239 
-0.001416535603217071 
-0.004500621421740972 
-0.02596330642774152 
-0.01616006686797193 
-0.04395606457180197 
-0.03174953226636516 
-0.03174953226636516 
0.01832985421057230 
-0.008211286092171461 
-0.03999113256013907 
-0.03174953226636516 
-0.001416535603217071 
0 
-0.01045419143919242 
0 
0 
-0.003030216649954690 
0.009378288836467989 
-0.03999113256013907 
-0.03999113256013907 
-0.03999113256013907 
-0.001416535603217071 
0.01463149554471859 
-0.003221666193598314 
-0.07981125134815763 
-0.01045419143919242 
-0.01953262022128012 
-0.03174953226636516 
-0.009978051512755461 
-0.001416535603217071 
-0.006446064359138902 
0.06026690404427441 
-0.02461612254932709 
-0.001416535603217071 
0.04046986867429894 
-0.04170874100744444 
-0.02594306583347986 
-0.001416535603217071 
-0.001416535603217071 
0.001781481235895733 
-0.001416535603217071 
-0.001416535603217071 
0.01263286350099673 
-0.03619997677306059 
-0.009978051512755461 
-0.02560329738895281 
0.02847010169203179 
-0.001416535603217071 
-0.001416535603217071 
-0.001416535603217071 
0.004144723989511731 
-0.01078462412977632 
-0.001416535603217071 
-0.004631592647515024 
0.004055513989041464 
0.02847010169203179 
0.02169513017302213 
-0.001416535603217071 
0.02847010169203179 
-0.005852294970500653 
-0.001416535603217071 
-0.001416535603217071 
-0.002823471712999510 
-0.001416535603217071 
-0.03278911144287020 
-0.04354345062134067 
-0.001416535603217071 
0.04057837750268854 
0.006121750753476435 
-0.001416535603217071 
0.05187555186107964 
-0.001416535603217071 
-0.001416535603217071 
0.001898875954314209 
-0.001416535603217071 
0.01263286350099673 
-0.01719487766674373 
0.03370486488981690 
-0.001416535603217071 
0.03827089128191660 
-0.03278911144287020 
-0.001416535603217071 
-0.001416535603217071 
-0.001416535603217071 
0.02856652147552217 
0.01263286350099673 
-0.03278911144287020 
-0.001416535603217071 
-0.04063573614034420 
-0.001416535603217071 
-0.0002531164172511120 
-0.01621569546799519 
-0.03278911144287020 
0.01263286350099673 
0.04149043181278014 
0.005777786823640546 
0.007327082572101816 
-0.001416535603217071 
-0.001416535603217071 
0.04209348296347923 
-0.03278911144287020 
-0.0002184490190721788 
-0.009978051512755461 
-0.005852294970500653 
0.01555756913267303 
-0.01712779852887286 
0.003229143168372432 
-0.01324865674125571 
0.003450014208002961 
0 
-0.009282645587678485 
-0.01324865674125571 
-0.03379334296976740 
0 
-0.01324865674125571 
-0.01324865674125571 
0 
0.006457519617781993 
-0.01148661220058721 
0 
0 
-0.09118352155235084 
0.01044492629358095 
-0.01324865674125571 
-0.01324865674125571 
-0.02946799419560623 
0.03040324545897808 
-0.002461731734960886 
-0.006994912085577985 
-8.673617379884035e-19 
-0.02754832321501997 
-0.01055733738690738 
-0.03119060993327278 
0 
0.02193933549002564 
0 
-0.04006459912315661 
0 
-0.01424605098454436 
0 
0.01814184133032172 
-0.01324865674125571 
0.01084775744231030 
-0.01148661220058721 
0 
-0.01324865674125571 
-0.01829336510339692 
0.01084775744231030 
-0.03014211782565666 
0 
0 
-0.01179496558057746 
0.03126495256445177 
-0.006449120907284073 
-0.03682999100882477 
-0.04442735721228208 
0 
0 
-0.01184047088138007 
-0.01408567580915635 
-0.009601102840206785 
0 
0.01893595225937940 
-0.01324865674125571 
0 
0.002729986657855801 
0.01814184133032172 
0.02841373525784720 
0.002729986657855801 
0 
-0.01324865674125571 
0 
0 
-8.673617379884035e-19 
0 
0.02369118405911846 
-0.01148661220058721 
-0.002803730447674776 
-0.06407681457112918 
0 
-0.01324865674125571 
0.01417583017674427 
-0.01324865674125571 
0 
0 
-0.004255459729520681 
-0.02660958153152435 
-8.673617379884035e-19 
0 
-8.673617379884035e-19 
-0.03395415006649043 
0 
-0.01324865674125571 
-0.01184047088138007 
0 
0.01814184133032172 
-0.01324865674125571 
0.002729986657855801 
-0.01289251483933854 
-0.01324865674125571 
0 
-0.01324865674125571 
0.05635825102973627 
0 
0.007596987183072133 
0 
0 
0 
-0.006994912085577985 
-0.01982017939854502 
-0.004255459729520681 
0 
-0.004255459729520681 
0.08304591951443680 
-0.01049825416118763 
0 
-8.673617379884035e-19 
-0.01148661220058721 
-0.006994912085577985 
0 
0.01814184133032172 
0.01814184133032172 
-0.004255459729520681 
-0.006994912085577985 
0 
-0.02660958153152435 
0 
-0.002803730447674776 
0.02552643204174774 
0 
-0.01547712101254720 
-0.04549079046962224 
-0.01148661220058721 
-0.01967661992875596 
-0.003808977511852382 
0.006457519617781993 
0 
0 
0 
-8.673617379884035e-19 
-0.004255459729520681 
0.002729986657855801 
-0.006994912085577985 
-0.006994912085577985 
0 
-0.002461731734960886 
-0.02759559426246154 
-0.006994912085577985 
-0.03768439631115850 
0 
0 
-0.06257517285425712 
-0.01663416159528389 
0.01893595225937940 
-0.04397855751143453 
0 
-0.01425648451267651 
-0.002736325327711862 
0 
-0.01324865674125571 
-0.01961567016306056 
0.02331287512230998 
-0.01324865674125571 
0.01541842430565914 
-0.01148661220058721 
0.006457519617781993 
0.006457519617781993 
-0.005485151427974541 
0.02313549928145632 
0 
-0.004255459729520681 
-0.01324865674125571 
0.004191181637903208 
0.002729986657855801 
-0.04549079046962224 
-0.02759559426246154 
0.002729986657855801 
0 
0.004191181637903208 
-0.02565314372386085 
0 
-0.02565314372386085 
-0.01148661220058721 
-0.05803160503440329 
0 
0 
-0.01148661220058721 
0 
0 
0 
0 
0 
0 
0 
0 
0.001359150433338737 
0 
0 
-0.04634291466529568 
0 
0 
-0.07863427043007173 
0 
0 
-0.0009393660420323271 
0 
0 
-0.01723457943116998 
0 
0 
0.001677178817413610 
0.001359150433338737 
0 
0.001359150433338737 
0.001359150433338737 
0.01672880062856010 
0 
0 
0.0009389612046529839 
0 
0.004191181637903208 
0.01144232841436519 
0.01617173088027065 
0.0006829794853696848 
0.004191181637903208 
0 
0.007605123097619147 
0 
-0.01843531840053893 
0.02436625070747812 
0 
0 
0 
0 
0.04508953191913424 
0 
0 
0 
0.001359150433338737 
0 
0 
-0.01723457943116998 
0 
0 
0.01807684055774046 
0 
0 
0 
0 
0.009045954543545388 
-0.01064533110694151 
0 
0 
0 
0.009045954543545388 
-0.005527568490262559 
0 
0 
0 
-0.006429291792891623 
0 
0.009045954543545388 
0 
0.009045954543545388 
0.01545258436753085 
0 
0 
0.009045954543545388 
-0.0009204558233637122 
0 
0.02817255020639936 
-0.0005468954784618283 
0.009045954543545388 
-0.001471364354371495 
0 
0 
